digraph Tree {
node [shape=box, style="filled, rounded", color="black", fontname=helvetica] ;
edge [fontname=helvetica] ;
0 [label=<Rating_nan &le; 0.5<br/>gini = 0.556<br/>samples = 11668<br/>value = [1648, 2980, 6994, 46]<br/>class = JP_Sales>, fillcolor="#399de576"] ;
1 [label=<Platform_PC &le; 0.5<br/>gini = 0.379<br/>samples = 6914<br/>value = [1178, 397, 5305, 34]<br/>class = JP_Sales>, fillcolor="#399de5b7"] ;
0 -> 1 [labeldistance=2.5, labelangle=45, headlabel="True"] ;
2 [label=<Platform_PS4 &le; 0.5<br/>gini = 0.315<br/>samples = 6335<br/>value = [731, 397, 5175, 32]<br/>class = JP_Sales>, fillcolor="#399de5ca"] ;
1 -> 2 ;
3 [label=<Platform_PS3 &le; 0.5<br/>gini = 0.296<br/>samples = 6135<br/>value = [624, 384, 5095, 32]<br/>class = JP_Sales>, fillcolor="#399de5cf"] ;
2 -> 3 ;
4 [label=<Genre_Role-Playing &le; 0.5<br/>gini = 0.26<br/>samples = 5476<br/>value = [453, 313, 4679, 31]<br/>class = JP_Sales>, fillcolor="#399de5d7"] ;
3 -> 4 ;
5 [label=<Platform_PSV &le; 0.5<br/>gini = 0.237<br/>samples = 5069<br/>value = [445, 191, 4402, 31]<br/>class = JP_Sales>, fillcolor="#399de5da"] ;
4 -> 5 ;
6 [label=<Platform_3DS &le; 0.5<br/>gini = 0.226<br/>samples = 4997<br/>value = [424, 170, 4372, 31]<br/>class = JP_Sales>, fillcolor="#399de5dc"] ;
5 -> 6 ;
7 [label=<Platform_PSP &le; 0.5<br/>gini = 0.214<br/>samples = 4849<br/>value = [388, 152, 4278, 31]<br/>class = JP_Sales>, fillcolor="#399de5de"] ;
6 -> 7 ;
8 [label=<Platform_DC &le; 0.5<br/>gini = 0.195<br/>samples = 4510<br/>value = [323, 125, 4031, 31]<br/>class = JP_Sales>, fillcolor="#399de5e2"] ;
7 -> 8 ;
9 [label=<Publisher_Nintendo &le; 0.5<br/>gini = 0.193<br/>samples = 4502<br/>value = [323, 118, 4030, 31]<br/>class = JP_Sales>, fillcolor="#399de5e2"] ;
8 -> 9 ;
10 [label=<Publisher_Little Orbit &le; 0.5<br/>gini = 0.184<br/>samples = 4358<br/>value = [307, 96, 3924, 31]<br/>class = JP_Sales>, fillcolor="#399de5e4"] ;
9 -> 10 ;
11 [label=<Publisher_Black Bean Games &le; 0.5<br/>gini = 0.182<br/>samples = 4351<br/>value = [302, 96, 3922, 31]<br/>class = JP_Sales>, fillcolor="#399de5e4"] ;
10 -> 11 ;
12 [label=<Platform_X &le; 0.5<br/>gini = 0.18<br/>samples = 4341<br/>value = [296, 96, 3918, 31]<br/>class = JP_Sales>, fillcolor="#399de5e4"] ;
11 -> 12 ;
13 [label=<Publisher_Codemasters &le; 0.5<br/>gini = 0.196<br/>samples = 3879<br/>value = [289, 95, 3464, 31]<br/>class = JP_Sales>, fillcolor="#399de5e2"] ;
12 -> 13 ;
14 [label=<Publisher_Tecmo Koei &le; 0.5<br/>gini = 0.192<br/>samples = 3843<br/>value = [276, 95, 3441, 31]<br/>class = JP_Sales>, fillcolor="#399de5e2"] ;
13 -> 14 ;
15 [label=<Platform_GBA &le; 0.5<br/>gini = 0.188<br/>samples = 3791<br/>value = [275, 81, 3404, 31]<br/>class = JP_Sales>, fillcolor="#399de5e3"] ;
14 -> 15 ;
16 [label=<Platform_GC &le; 0.5<br/>gini = 0.202<br/>samples = 3475<br/>value = [273, 80, 3091, 31]<br/>class = JP_Sales>, fillcolor="#399de5e0"] ;
15 -> 16 ;
17 [label=<Platform_PS2 &le; 0.5<br/>gini = 0.216<br/>samples = 3202<br/>value = [273, 78, 2820, 31]<br/>class = JP_Sales>, fillcolor="#399de5de"] ;
16 -> 17 ;
18 [label=<Publisher_Alternative Software &le; 0.5<br/>gini = 0.22<br/>samples = 2306<br/>value = [247, 38, 2021, 0]<br/>class = JP_Sales>, fillcolor="#399de5dc"] ;
17 -> 18 ;
19 [label=<Publisher_Tru Blu Entertainment &le; 0.5<br/>gini = 0.219<br/>samples = 2304<br/>value = [245, 38, 2021, 0]<br/>class = JP_Sales>, fillcolor="#399de5dc"] ;
18 -> 19 ;
20 [label=<Platform_WiiU &le; 0.5<br/>gini = 0.218<br/>samples = 2302<br/>value = [243, 38, 2021, 0]<br/>class = JP_Sales>, fillcolor="#399de5dc"] ;
19 -> 20 ;
21 [label=<Year_1.0 &le; 0.5<br/>gini = 0.212<br/>samples = 2253<br/>value = [229, 38, 1986, 0]<br/>class = JP_Sales>, fillcolor="#399de5dd"] ;
20 -> 21 ;
22 [label=<Genre_Misc &le; 0.5<br/>gini = 0.407<br/>samples = 42<br/>value = [2, 9, 31, 0]<br/>class = JP_Sales>, fillcolor="#399de5aa"] ;
21 -> 22 ;
23 [label=<Genre_Simulation &le; 0.5<br/>gini = 0.366<br/>samples = 40<br/>value = [2, 7, 31, 0]<br/>class = JP_Sales>, fillcolor="#399de5b9"] ;
22 -> 23 ;
24 [label=<Genre_Fighting &le; 0.5<br/>gini = 0.29<br/>samples = 36<br/>value = [2, 4, 30, 0]<br/>class = JP_Sales>, fillcolor="#399de5cf"] ;
23 -> 24 ;
25 [label=<Platform_Wii &le; 0.5<br/>gini = 0.179<br/>samples = 31<br/>value = [2, 1, 28, 0]<br/>class = JP_Sales>, fillcolor="#399de5e5"] ;
24 -> 25 ;
26 [label=<Publisher_Take-Two Interactive &le; 0.5<br/>gini = 0.127<br/>samples = 30<br/>value = [1, 1, 28, 0]<br/>class = JP_Sales>, fillcolor="#399de5ed"] ;
25 -> 26 ;
27 [label=<Genre_Sports &le; 0.5<br/>gini = 0.067<br/>samples = 29<br/>value = [0, 1, 28, 0]<br/>class = JP_Sales>, fillcolor="#399de5f6"] ;
26 -> 27 ;
28 [label=<gini = 0.0<br/>samples = 26<br/>value = [0, 0, 26, 0]<br/>class = JP_Sales>, fillcolor="#399de5ff"] ;
27 -> 28 ;
29 [label=<Publisher_Konami Digital Entertainment &le; 0.5<br/>gini = 0.444<br/>samples = 3<br/>value = [0, 1, 2, 0]<br/>class = JP_Sales>, fillcolor="#399de57f"] ;
27 -> 29 ;
30 [label=<gini = 0.0<br/>samples = 2<br/>value = [0, 0, 2, 0]<br/>class = JP_Sales>, fillcolor="#399de5ff"] ;
29 -> 30 ;
31 [label=<gini = 0.0<br/>samples = 1<br/>value = [0, 1, 0, 0]<br/>class = EU_Sales>, fillcolor="#47e539ff"] ;
29 -> 31 ;
32 [label=<gini = 0.0<br/>samples = 1<br/>value = [1, 0, 0, 0]<br/>class = NA_Sales>, fillcolor="#e58139ff"] ;
26 -> 32 ;
33 [label=<gini = 0.0<br/>samples = 1<br/>value = [1, 0, 0, 0]<br/>class = NA_Sales>, fillcolor="#e58139ff"] ;
25 -> 33 ;
34 [label=<Publisher_Sony Computer Entertainment &le; 0.5<br/>gini = 0.48<br/>samples = 5<br/>value = [0, 3, 2, 0]<br/>class = EU_Sales>, fillcolor="#47e53955"] ;
24 -> 34 ;
35 [label=<gini = 0.0<br/>samples = 1<br/>value = [0, 1, 0, 0]<br/>class = EU_Sales>, fillcolor="#47e539ff"] ;
34 -> 35 ;
36 [label=<gini = 0.5<br/>samples = 4<br/>value = [0, 2, 2, 0]<br/>class = EU_Sales>, fillcolor="#47e53900"] ;
34 -> 36 ;
37 [label=<Publisher_Psygnosis &le; 0.5<br/>gini = 0.375<br/>samples = 4<br/>value = [0, 3, 1, 0]<br/>class = EU_Sales>, fillcolor="#47e539aa"] ;
23 -> 37 ;
38 [label=<gini = 0.0<br/>samples = 3<br/>value = [0, 3, 0, 0]<br/>class = EU_Sales>, fillcolor="#47e539ff"] ;
37 -> 38 ;
39 [label=<gini = 0.0<br/>samples = 1<br/>value = [0, 0, 1, 0]<br/>class = JP_Sales>, fillcolor="#399de5ff"] ;
37 -> 39 ;
40 [label=<gini = 0.0<br/>samples = 2<br/>value = [0, 2, 0, 0]<br/>class = EU_Sales>, fillcolor="#47e539ff"] ;
22 -> 40 ;
41 [label=<Publisher_Electronic Arts &le; 0.5<br/>gini = 0.207<br/>samples = 2211<br/>value = [227, 29, 1955, 0]<br/>class = JP_Sales>, fillcolor="#399de5de"] ;
21 -> 41 ;
42 [label=<Publisher_Namco Bandai Games &le; 0.5<br/>gini = 0.195<br/>samples = 1981<br/>value = [186, 28, 1767, 0]<br/>class = JP_Sales>, fillcolor="#399de5e1"] ;
41 -> 42 ;
43 [label=<Publisher_Funsta &le; 0.5<br/>gini = 0.188<br/>samples = 1928<br/>value = [178, 22, 1728, 0]<br/>class = JP_Sales>, fillcolor="#399de5e2"] ;
42 -> 43 ;
44 [label=<Publisher_Astragon &le; 0.5<br/>gini = 0.187<br/>samples = 1925<br/>value = [176, 22, 1727, 0]<br/>class = JP_Sales>, fillcolor="#399de5e2"] ;
43 -> 44 ;
45 [label=<Platform_XOne &le; 0.5<br/>gini = 0.185<br/>samples = 1922<br/>value = [174, 22, 1726, 0]<br/>class = JP_Sales>, fillcolor="#399de5e2"] ;
44 -> 45 ;
46 [label=<Publisher_Level 5 &le; 0.5<br/>gini = 0.177<br/>samples = 1823<br/>value = [155, 22, 1646, 0]<br/>class = JP_Sales>, fillcolor="#399de5e4"] ;
45 -> 46 ;
47 [label=<Publisher_SNK &le; 0.5<br/>gini = 0.176<br/>samples = 1822<br/>value = [155, 21, 1646, 0]<br/>class = JP_Sales>, fillcolor="#399de5e4"] ;
46 -> 47 ;
48 [label=<Publisher_iWin &le; 0.5<br/>gini = 0.176<br/>samples = 1821<br/>value = [155, 20, 1646, 0]<br/>class = JP_Sales>, fillcolor="#399de5e4"] ;
47 -> 48 ;
49 [label=<Publisher_Avanquest &le; 0.5<br/>gini = 0.175<br/>samples = 1820<br/>value = [154, 20, 1646, 0]<br/>class = JP_Sales>, fillcolor="#399de5e4"] ;
48 -> 49 ;
50 [label=<Publisher_TopWare Interactive &le; 0.5<br/>gini = 0.172<br/>samples = 1809<br/>value = [150, 20, 1639, 0]<br/>class = JP_Sales>, fillcolor="#399de5e5"] ;
49 -> 50 ;
51 [label=<Publisher_Square Enix  &le; 0.5<br/>gini = 0.171<br/>samples = 1808<br/>value = [149, 20, 1639, 0]<br/>class = JP_Sales>, fillcolor="#399de5e5"] ;
50 -> 51 ;
52 [label=<Publisher_Home Entertainment Suppliers &le; 0.5<br/>gini = 0.17<br/>samples = 1807<br/>value = [148, 20, 1639, 0]<br/>class = JP_Sales>, fillcolor="#399de5e5"] ;
51 -> 52 ;
53 [label=<Publisher_Tradewest &le; 0.5<br/>gini = 0.17<br/>samples = 1806<br/>value = [147, 20, 1639, 0]<br/>class = JP_Sales>, fillcolor="#399de5e5"] ;
52 -> 53 ;
54 [label=<Publisher_Rondomedia &le; 0.5<br/>gini = 0.169<br/>samples = 1805<br/>value = [146, 20, 1639, 0]<br/>class = JP_Sales>, fillcolor="#399de5e5"] ;
53 -> 54 ;
55 [label=<Publisher_Mastertronic &le; 0.5<br/>gini = 0.167<br/>samples = 1801<br/>value = [144, 20, 1637, 0]<br/>class = JP_Sales>, fillcolor="#399de5e6"] ;
54 -> 55 ;
56 [label=<Publisher_City Interactive &le; 0.5<br/>gini = 0.166<br/>samples = 1797<br/>value = [142, 20, 1635, 0]<br/>class = JP_Sales>, fillcolor="#399de5e6"] ;
55 -> 56 ;
57 [label=<Publisher_Capcom &le; 0.5<br/>gini = 0.164<br/>samples = 1789<br/>value = [139, 20, 1630, 0]<br/>class = JP_Sales>, fillcolor="#399de5e6"] ;
56 -> 57 ;
58 [label=<Publisher_Unknown &le; 0.5<br/>gini = 0.159<br/>samples = 1754<br/>value = [136, 15, 1603, 0]<br/>class = JP_Sales>, fillcolor="#399de5e7"] ;
57 -> 58 ;
59 [label=<Publisher_Microsoft Game Studios &le; 0.5<br/>gini = 0.156<br/>samples = 1740<br/>value = [132, 15, 1593, 0]<br/>class = JP_Sales>, fillcolor="#399de5e8"] ;
58 -> 59 ;
60 [label=<Publisher_Nobilis &le; 0.5<br/>gini = 0.152<br/>samples = 1707<br/>value = [125, 15, 1567, 0]<br/>class = JP_Sales>, fillcolor="#399de5e8"] ;
59 -> 60 ;
61 [label=<Publisher_Konami Digital Entertainment &le; 0.5<br/>gini = 0.15<br/>samples = 1702<br/>value = [123, 15, 1564, 0]<br/>class = JP_Sales>, fillcolor="#399de5e9"] ;
60 -> 61 ;
62 [label=<Publisher_5p &le; 0.5<br/>gini = 0.143<br/>samples = 1622<br/>value = [116, 9, 1497, 0]<br/>class = JP_Sales>, fillcolor="#399de5ea"] ;
61 -> 62 ;
63 [label=<Publisher_From Software &le; 0.5<br/>gini = 0.142<br/>samples = 1620<br/>value = [116, 8, 1496, 0]<br/>class = JP_Sales>, fillcolor="#399de5ea"] ;
62 -> 63 ;
64 [label=<Publisher_RTL &le; 0.5<br/>gini = 0.141<br/>samples = 1618<br/>value = [116, 7, 1495, 0]<br/>class = JP_Sales>, fillcolor="#399de5ea"] ;
63 -> 64 ;
65 [label=<Publisher_Focus Home Interactive &le; 0.5<br/>gini = 0.139<br/>samples = 1612<br/>value = [114, 7, 1491, 0]<br/>class = JP_Sales>, fillcolor="#399de5ea"] ;
64 -> 65 ;
66 [label=<Publisher_Eidos Interactive &le; 0.5<br/>gini = 0.138<br/>samples = 1606<br/>value = [112, 7, 1487, 0]<br/>class = JP_Sales>, fillcolor="#399de5eb"] ;
65 -> 66 ;
67 [label=<Publisher_PlayV &le; 0.5<br/>gini = 0.134<br/>samples = 1572<br/>value = [106, 7, 1459, 0]<br/>class = JP_Sales>, fillcolor="#399de5eb"] ;
66 -> 67 ;
68 [label=<Publisher_Game Life &le; 0.5<br/>gini = 0.133<br/>samples = 1570<br/>value = [105, 7, 1458, 0]<br/>class = JP_Sales>, fillcolor="#399de5ec"] ;
67 -> 68 ;
69 [label=<Publisher_Blast! Entertainment Ltd &le; 0.5<br/>gini = 0.132<br/>samples = 1568<br/>value = [104, 7, 1457, 0]<br/>class = JP_Sales>, fillcolor="#399de5ec"] ;
68 -> 69 ;
70 [label=<Publisher_Square Enix &le; 0.5<br/>gini = 0.131<br/>samples = 1566<br/>value = [103, 7, 1456, 0]<br/>class = JP_Sales>, fillcolor="#399de5ec"] ;
69 -> 70 ;
71 [label=<Publisher_Ubisoft &le; 0.5<br/>gini = 0.128<br/>samples = 1549<br/>value = [100, 6, 1443, 0]<br/>class = JP_Sales>, fillcolor="#399de5ec"] ;
70 -> 71 ;
72 [label=<Publisher_THQ &le; 0.5<br/>gini = 0.117<br/>samples = 1333<br/>value = [79, 4, 1250, 0]<br/>class = JP_Sales>, fillcolor="#399de5ee"] ;
71 -> 72 ;
73 [label=<Publisher_Nordic Games &le; 0.5<br/>gini = 0.108<br/>samples = 1190<br/>value = [64, 4, 1122, 0]<br/>class = JP_Sales>, fillcolor="#399de5f0"] ;
72 -> 73 ;
74 [label=<Publisher_Rising Star Games &le; 0.5<br/>gini = 0.106<br/>samples = 1182<br/>value = [62, 4, 1116, 0]<br/>class = JP_Sales>, fillcolor="#399de5f0"] ;
73 -> 74 ;
75 [label=<Publisher_Takara Tomy &le; 0.5<br/>gini = 0.102<br/>samples = 1157<br/>value = [58, 4, 1095, 0]<br/>class = JP_Sales>, fillcolor="#399de5f1"] ;
74 -> 75 ;
76 [label=<Publisher_Arc System Works &le; 0.5<br/>gini = 0.1<br/>samples = 1154<br/>value = [58, 3, 1093, 0]<br/>class = JP_Sales>, fillcolor="#399de5f1"] ;
75 -> 76 ;
77 [label=<Publisher_Sega &le; 0.5<br/>gini = 0.099<br/>samples = 1151<br/>value = [58, 2, 1091, 0]<br/>class = JP_Sales>, fillcolor="#399de5f1"] ;
76 -> 77 ;
78 [label=<Publisher_Deep Silver &le; 0.5<br/>gini = 0.093<br/>samples = 1091<br/>value = [51, 2, 1038, 0]<br/>class = JP_Sales>, fillcolor="#399de5f2"] ;
77 -> 78 ;
79 [label=<Publisher_Oxygen Interactive &le; 0.5<br/>gini = 0.088<br/>samples = 1064<br/>value = [47, 2, 1015, 0]<br/>class = JP_Sales>, fillcolor="#399de5f3"] ;
78 -> 79 ;
80 [label=<Publisher_Atari &le; 0.5<br/>gini = 0.085<br/>samples = 1055<br/>value = [45, 2, 1008, 0]<br/>class = JP_Sales>, fillcolor="#399de5f3"] ;
79 -> 80 ;
81 [label=<Publisher_GSP &le; 0.5<br/>gini = 0.079<br/>samples = 1020<br/>value = [41, 1, 978, 0]<br/>class = JP_Sales>, fillcolor="#399de5f4"] ;
80 -> 81 ;
82 [label=<Publisher_Virgin Interactive &le; 0.5<br/>gini = 0.077<br/>samples = 1017<br/>value = [40, 1, 976, 0]<br/>class = JP_Sales>, fillcolor="#399de5f4"] ;
81 -> 82 ;
83 [label=<Publisher_JoWood Productions &le; 0.5<br/>gini = 0.076<br/>samples = 1014<br/>value = [39, 1, 974, 0]<br/>class = JP_Sales>, fillcolor="#399de5f5"] ;
82 -> 83 ;
84 [label=<Publisher_Nordcurrent &le; 0.5<br/>gini = 0.074<br/>samples = 1011<br/>value = [38, 1, 972, 0]<br/>class = JP_Sales>, fillcolor="#399de5f5"] ;
83 -> 84 ;
85 [label=<Publisher_D3Publisher &le; 0.5<br/>gini = 0.073<br/>samples = 1008<br/>value = [37, 1, 970, 0]<br/>class = JP_Sales>, fillcolor="#399de5f5"] ;
84 -> 85 ;
86 [label=<Publisher_PQube &le; 0.5<br/>gini = 0.068<br/>samples = 971<br/>value = [33, 1, 937, 0]<br/>class = JP_Sales>, fillcolor="#399de5f6"] ;
85 -> 86 ;
87 [label=<Rating_E10+ &le; 0.5<br/>gini = 0.066<br/>samples = 967<br/>value = [32, 1, 934, 0]<br/>class = JP_Sales>, fillcolor="#399de5f6"] ;
86 -> 87 ;
88 [label=<Publisher_Take-Two Interactive &le; 0.5<br/>gini = 0.054<br/>samples = 755<br/>value = [20, 1, 734, 0]<br/>class = JP_Sales>, fillcolor="#399de5f8"] ;
87 -> 88 ;
89 [label=<Publisher_Empire Interactive &le; 0.5<br/>gini = 0.043<br/>samples = 675<br/>value = [15, 0, 660, 0]<br/>class = JP_Sales>, fillcolor="#399de5f9"] ;
88 -> 89 ;
90 [label=<Publisher_GameMill Entertainment &le; 0.5<br/>gini = 0.041<br/>samples = 670<br/>value = [14, 0, 656, 0]<br/>class = JP_Sales>, fillcolor="#399de5fa"] ;
89 -> 90 ;
91 [label=<Publisher_O-Games &le; 0.5<br/>gini = 0.038<br/>samples = 664<br/>value = [13, 0, 651, 0]<br/>class = JP_Sales>, fillcolor="#399de5fa"] ;
90 -> 91 ;
92 [label=<Publisher_Activision &le; 0.5<br/>gini = 0.036<br/>samples = 658<br/>value = [12, 0, 646, 0]<br/>class = JP_Sales>, fillcolor="#399de5fa"] ;
91 -> 92 ;
93 [label=<Publisher_Zushi Games &le; 0.5<br/>gini = 0.023<br/>samples = 509<br/>value = [6, 0, 503, 0]<br/>class = JP_Sales>, fillcolor="#399de5fc"] ;
92 -> 93 ;
94 [label=<Publisher_Bethesda Softworks &le; 0.5<br/>gini = 0.02<br/>samples = 501<br/>value = [5, 0, 496, 0]<br/>class = JP_Sales>, fillcolor="#399de5fc"] ;
93 -> 94 ;
95 [label=<Genre_Puzzle &le; 0.5<br/>gini = 0.016<br/>samples = 490<br/>value = [4, 0, 486, 0]<br/>class = JP_Sales>, fillcolor="#399de5fd"] ;
94 -> 95 ;
96 [label=<Publisher_Majesco Entertainment &le; 0.5<br/>gini = 0.009<br/>samples = 433<br/>value = [2, 0, 431, 0]<br/>class = JP_Sales>, fillcolor="#399de5fe"] ;
95 -> 96 ;
97 [label=<Publisher_505 Games &le; 0.5<br/>gini = 0.005<br/>samples = 402<br/>value = [1, 0, 401, 0]<br/>class = JP_Sales>, fillcolor="#399de5fe"] ;
96 -> 97 ;
98 [label=<gini = 0.0<br/>samples = 352<br/>value = [0, 0, 352, 0]<br/>class = JP_Sales>, fillcolor="#399de5ff"] ;
97 -> 98 ;
99 [label=<Genre_Sports &le; 0.5<br/>gini = 0.039<br/>samples = 50<br/>value = [1, 0, 49, 0]<br/>class = JP_Sales>, fillcolor="#399de5fa"] ;
97 -> 99 ;
100 [label=<gini = 0.0<br/>samples = 39<br/>value = [0, 0, 39, 0]<br/>class = JP_Sales>, fillcolor="#399de5ff"] ;
99 -> 100 ;
101 [label=<Platform_X360 &le; 0.5<br/>gini = 0.165<br/>samples = 11<br/>value = [1, 0, 10, 0]<br/>class = JP_Sales>, fillcolor="#399de5e6"] ;
99 -> 101 ;
102 [label=<gini = 0.0<br/>samples = 7<br/>value = [0, 0, 7, 0]<br/>class = JP_Sales>, fillcolor="#399de5ff"] ;
101 -> 102 ;
103 [label=<gini = 0.375<br/>samples = 4<br/>value = [1, 0, 3, 0]<br/>class = JP_Sales>, fillcolor="#399de5aa"] ;
101 -> 103 ;
104 [label=<Platform_DS &le; 0.5<br/>gini = 0.062<br/>samples = 31<br/>value = [1, 0, 30, 0]<br/>class = JP_Sales>, fillcolor="#399de5f6"] ;
96 -> 104 ;
105 [label=<gini = 0.0<br/>samples = 13<br/>value = [0, 0, 13, 0]<br/>class = JP_Sales>, fillcolor="#399de5ff"] ;
104 -> 105 ;
106 [label=<Genre_Misc &le; 0.5<br/>gini = 0.105<br/>samples = 18<br/>value = [1, 0, 17, 0]<br/>class = JP_Sales>, fillcolor="#399de5f0"] ;
104 -> 106 ;
107 [label=<Genre_Simulation &le; 0.5<br/>gini = 0.165<br/>samples = 11<br/>value = [1, 0, 10, 0]<br/>class = JP_Sales>, fillcolor="#399de5e6"] ;
106 -> 107 ;
108 [label=<Genre_Racing &le; 0.5<br/>gini = 0.219<br/>samples = 8<br/>value = [1, 0, 7, 0]<br/>class = JP_Sales>, fillcolor="#399de5db"] ;
107 -> 108 ;
109 [label=<Genre_Shooter &le; 0.5<br/>gini = 0.278<br/>samples = 6<br/>value = [1, 0, 5, 0]<br/>class = JP_Sales>, fillcolor="#399de5cc"] ;
108 -> 109 ;
110 [label=<Genre_Strategy &le; 0.5<br/>gini = 0.32<br/>samples = 5<br/>value = [1, 0, 4, 0]<br/>class = JP_Sales>, fillcolor="#399de5bf"] ;
109 -> 110 ;
111 [label=<Genre_Platform &le; 0.5<br/>gini = 0.375<br/>samples = 4<br/>value = [1, 0, 3, 0]<br/>class = JP_Sales>, fillcolor="#399de5aa"] ;
110 -> 111 ;
112 [label=<Genre_Adventure &le; 0.5<br/>gini = 0.444<br/>samples = 3<br/>value = [1, 0, 2, 0]<br/>class = JP_Sales>, fillcolor="#399de57f"] ;
111 -> 112 ;
113 [label=<Genre_Sports &le; 0.5<br/>gini = 0.5<br/>samples = 2<br/>value = [1, 0, 1, 0]<br/>class = NA_Sales>, fillcolor="#e5813900"] ;
112 -> 113 ;
114 [label=<gini = 0.0<br/>samples = 1<br/>value = [1, 0, 0, 0]<br/>class = NA_Sales>, fillcolor="#e58139ff"] ;
113 -> 114 ;
115 [label=<gini = 0.0<br/>samples = 1<br/>value = [0, 0, 1, 0]<br/>class = JP_Sales>, fillcolor="#399de5ff"] ;
113 -> 115 ;
116 [label=<gini = 0.0<br/>samples = 1<br/>value = [0, 0, 1, 0]<br/>class = JP_Sales>, fillcolor="#399de5ff"] ;
112 -> 116 ;
117 [label=<gini = 0.0<br/>samples = 1<br/>value = [0, 0, 1, 0]<br/>class = JP_Sales>, fillcolor="#399de5ff"] ;
111 -> 117 ;
118 [label=<gini = 0.0<br/>samples = 1<br/>value = [0, 0, 1, 0]<br/>class = JP_Sales>, fillcolor="#399de5ff"] ;
110 -> 118 ;
119 [label=<gini = 0.0<br/>samples = 1<br/>value = [0, 0, 1, 0]<br/>class = JP_Sales>, fillcolor="#399de5ff"] ;
109 -> 119 ;
120 [label=<gini = 0.0<br/>samples = 2<br/>value = [0, 0, 2, 0]<br/>class = JP_Sales>, fillcolor="#399de5ff"] ;
108 -> 120 ;
121 [label=<gini = 0.0<br/>samples = 3<br/>value = [0, 0, 3, 0]<br/>class = JP_Sales>, fillcolor="#399de5ff"] ;
107 -> 121 ;
122 [label=<gini = 0.0<br/>samples = 7<br/>value = [0, 0, 7, 0]<br/>class = JP_Sales>, fillcolor="#399de5ff"] ;
106 -> 122 ;
123 [label=<Publisher_Disney Interactive Studios &le; 0.5<br/>gini = 0.068<br/>samples = 57<br/>value = [2, 0, 55, 0]<br/>class = JP_Sales>, fillcolor="#399de5f6"] ;
95 -> 123 ;
124 [label=<Publisher_Warner Bros. Interactive Entertainment &le; 0.5<br/>gini = 0.035<br/>samples = 56<br/>value = [1, 0, 55, 0]<br/>class = JP_Sales>, fillcolor="#399de5fa"] ;
123 -> 124 ;
125 [label=<gini = 0.0<br/>samples = 53<br/>value = [0, 0, 53, 0]<br/>class = JP_Sales>, fillcolor="#399de5ff"] ;
124 -> 125 ;
126 [label=<Platform_DS &le; 0.5<br/>gini = 0.444<br/>samples = 3<br/>value = [1, 0, 2, 0]<br/>class = JP_Sales>, fillcolor="#399de57f"] ;
124 -> 126 ;
127 [label=<gini = 0.0<br/>samples = 1<br/>value = [0, 0, 1, 0]<br/>class = JP_Sales>, fillcolor="#399de5ff"] ;
126 -> 127 ;
128 [label=<gini = 0.5<br/>samples = 2<br/>value = [1, 0, 1, 0]<br/>class = NA_Sales>, fillcolor="#e5813900"] ;
126 -> 128 ;
129 [label=<gini = 0.0<br/>samples = 1<br/>value = [1, 0, 0, 0]<br/>class = NA_Sales>, fillcolor="#e58139ff"] ;
123 -> 129 ;
130 [label=<Genre_Racing &le; 0.5<br/>gini = 0.165<br/>samples = 11<br/>value = [1, 0, 10, 0]<br/>class = JP_Sales>, fillcolor="#399de5e6"] ;
94 -> 130 ;
131 [label=<gini = 0.0<br/>samples = 10<br/>value = [0, 0, 10, 0]<br/>class = JP_Sales>, fillcolor="#399de5ff"] ;
130 -> 131 ;
132 [label=<gini = 0.0<br/>samples = 1<br/>value = [1, 0, 0, 0]<br/>class = NA_Sales>, fillcolor="#e58139ff"] ;
130 -> 132 ;
133 [label=<Platform_DS &le; 0.5<br/>gini = 0.219<br/>samples = 8<br/>value = [1, 0, 7, 0]<br/>class = JP_Sales>, fillcolor="#399de5db"] ;
93 -> 133 ;
134 [label=<gini = 0.0<br/>samples = 4<br/>value = [0, 0, 4, 0]<br/>class = JP_Sales>, fillcolor="#399de5ff"] ;
133 -> 134 ;
135 [label=<Genre_Puzzle &le; 0.5<br/>gini = 0.375<br/>samples = 4<br/>value = [1, 0, 3, 0]<br/>class = JP_Sales>, fillcolor="#399de5aa"] ;
133 -> 135 ;
136 [label=<Genre_Simulation &le; 0.5<br/>gini = 0.5<br/>samples = 2<br/>value = [1, 0, 1, 0]<br/>class = NA_Sales>, fillcolor="#e5813900"] ;
135 -> 136 ;
137 [label=<gini = 0.0<br/>samples = 1<br/>value = [1, 0, 0, 0]<br/>class = NA_Sales>, fillcolor="#e58139ff"] ;
136 -> 137 ;
138 [label=<gini = 0.0<br/>samples = 1<br/>value = [0, 0, 1, 0]<br/>class = JP_Sales>, fillcolor="#399de5ff"] ;
136 -> 138 ;
139 [label=<gini = 0.0<br/>samples = 2<br/>value = [0, 0, 2, 0]<br/>class = JP_Sales>, fillcolor="#399de5ff"] ;
135 -> 139 ;
140 [label=<Genre_Misc &le; 0.5<br/>gini = 0.077<br/>samples = 149<br/>value = [6, 0, 143, 0]<br/>class = JP_Sales>, fillcolor="#399de5f4"] ;
92 -> 140 ;
141 [label=<Platform_X360 &le; 0.5<br/>gini = 0.061<br/>samples = 128<br/>value = [4, 0, 124, 0]<br/>class = JP_Sales>, fillcolor="#399de5f7"] ;
140 -> 141 ;
142 [label=<Platform_PS &le; 0.5<br/>gini = 0.027<br/>samples = 74<br/>value = [1, 0, 73, 0]<br/>class = JP_Sales>, fillcolor="#399de5fc"] ;
141 -> 142 ;
143 [label=<gini = 0.0<br/>samples = 64<br/>value = [0, 0, 64, 0]<br/>class = JP_Sales>, fillcolor="#399de5ff"] ;
142 -> 143 ;
144 [label=<Rating_E &le; 0.5<br/>gini = 0.18<br/>samples = 10<br/>value = [1, 0, 9, 0]<br/>class = JP_Sales>, fillcolor="#399de5e3"] ;
142 -> 144 ;
145 [label=<gini = 0.0<br/>samples = 3<br/>value = [0, 0, 3, 0]<br/>class = JP_Sales>, fillcolor="#399de5ff"] ;
144 -> 145 ;
146 [label=<Genre_Sports &le; 0.5<br/>gini = 0.245<br/>samples = 7<br/>value = [1, 0, 6, 0]<br/>class = JP_Sales>, fillcolor="#399de5d4"] ;
144 -> 146 ;
147 [label=<Genre_Platform &le; 0.5<br/>gini = 0.32<br/>samples = 5<br/>value = [1, 0, 4, 0]<br/>class = JP_Sales>, fillcolor="#399de5bf"] ;
146 -> 147 ;
148 [label=<Genre_Simulation &le; 0.5<br/>gini = 0.375<br/>samples = 4<br/>value = [1, 0, 3, 0]<br/>class = JP_Sales>, fillcolor="#399de5aa"] ;
147 -> 148 ;
149 [label=<gini = 0.444<br/>samples = 3<br/>value = [1, 0, 2, 0]<br/>class = JP_Sales>, fillcolor="#399de57f"] ;
148 -> 149 ;
150 [label=<gini = 0.0<br/>samples = 1<br/>value = [0, 0, 1, 0]<br/>class = JP_Sales>, fillcolor="#399de5ff"] ;
148 -> 150 ;
151 [label=<gini = 0.0<br/>samples = 1<br/>value = [0, 0, 1, 0]<br/>class = JP_Sales>, fillcolor="#399de5ff"] ;
147 -> 151 ;
152 [label=<gini = 0.0<br/>samples = 2<br/>value = [0, 0, 2, 0]<br/>class = JP_Sales>, fillcolor="#399de5ff"] ;
146 -> 152 ;
153 [label=<Rating_M &le; 0.5<br/>gini = 0.105<br/>samples = 54<br/>value = [3, 0, 51, 0]<br/>class = JP_Sales>, fillcolor="#399de5f0"] ;
141 -> 153 ;
154 [label=<Genre_Sports &le; 0.5<br/>gini = 0.149<br/>samples = 37<br/>value = [3, 0, 34, 0]<br/>class = JP_Sales>, fillcolor="#399de5e9"] ;
153 -> 154 ;
155 [label=<Genre_Racing &le; 0.5<br/>gini = 0.219<br/>samples = 24<br/>value = [3, 0, 21, 0]<br/>class = JP_Sales>, fillcolor="#399de5db"] ;
154 -> 155 ;
156 [label=<Genre_Platform &le; 0.5<br/>gini = 0.266<br/>samples = 19<br/>value = [3, 0, 16, 0]<br/>class = JP_Sales>, fillcolor="#399de5cf"] ;
155 -> 156 ;
157 [label=<Genre_Strategy &le; 0.5<br/>gini = 0.291<br/>samples = 17<br/>value = [3, 0, 14, 0]<br/>class = JP_Sales>, fillcolor="#399de5c8"] ;
156 -> 157 ;
158 [label=<Rating_T &le; 0.5<br/>gini = 0.305<br/>samples = 16<br/>value = [3, 0, 13, 0]<br/>class = JP_Sales>, fillcolor="#399de5c4"] ;
157 -> 158 ;
159 [label=<gini = 0.444<br/>samples = 3<br/>value = [1, 0, 2, 0]<br/>class = JP_Sales>, fillcolor="#399de57f"] ;
158 -> 159 ;
160 [label=<Genre_Shooter &le; 0.5<br/>gini = 0.26<br/>samples = 13<br/>value = [2, 0, 11, 0]<br/>class = JP_Sales>, fillcolor="#399de5d1"] ;
158 -> 160 ;
161 [label=<gini = 0.278<br/>samples = 6<br/>value = [1, 0, 5, 0]<br/>class = JP_Sales>, fillcolor="#399de5cc"] ;
160 -> 161 ;
162 [label=<gini = 0.245<br/>samples = 7<br/>value = [1, 0, 6, 0]<br/>class = JP_Sales>, fillcolor="#399de5d4"] ;
160 -> 162 ;
163 [label=<gini = 0.0<br/>samples = 1<br/>value = [0, 0, 1, 0]<br/>class = JP_Sales>, fillcolor="#399de5ff"] ;
157 -> 163 ;
164 [label=<gini = 0.0<br/>samples = 2<br/>value = [0, 0, 2, 0]<br/>class = JP_Sales>, fillcolor="#399de5ff"] ;
156 -> 164 ;
165 [label=<gini = 0.0<br/>samples = 5<br/>value = [0, 0, 5, 0]<br/>class = JP_Sales>, fillcolor="#399de5ff"] ;
155 -> 165 ;
166 [label=<gini = 0.0<br/>samples = 13<br/>value = [0, 0, 13, 0]<br/>class = JP_Sales>, fillcolor="#399de5ff"] ;
154 -> 166 ;
167 [label=<gini = 0.0<br/>samples = 17<br/>value = [0, 0, 17, 0]<br/>class = JP_Sales>, fillcolor="#399de5ff"] ;
153 -> 167 ;
168 [label=<Platform_X360 &le; 0.5<br/>gini = 0.172<br/>samples = 21<br/>value = [2, 0, 19, 0]<br/>class = JP_Sales>, fillcolor="#399de5e4"] ;
140 -> 168 ;
169 [label=<Rating_E &le; 0.5<br/>gini = 0.32<br/>samples = 10<br/>value = [2, 0, 8, 0]<br/>class = JP_Sales>, fillcolor="#399de5bf"] ;
168 -> 169 ;
170 [label=<Platform_Wii &le; 0.5<br/>gini = 0.278<br/>samples = 6<br/>value = [1, 0, 5, 0]<br/>class = JP_Sales>, fillcolor="#399de5cc"] ;
169 -> 170 ;
171 [label=<gini = 0.0<br/>samples = 1<br/>value = [0, 0, 1, 0]<br/>class = JP_Sales>, fillcolor="#399de5ff"] ;
170 -> 171 ;
172 [label=<gini = 0.32<br/>samples = 5<br/>value = [1, 0, 4, 0]<br/>class = JP_Sales>, fillcolor="#399de5bf"] ;
170 -> 172 ;
173 [label=<Platform_DS &le; 0.5<br/>gini = 0.375<br/>samples = 4<br/>value = [1, 0, 3, 0]<br/>class = JP_Sales>, fillcolor="#399de5aa"] ;
169 -> 173 ;
174 [label=<gini = 0.0<br/>samples = 1<br/>value = [0, 0, 1, 0]<br/>class = JP_Sales>, fillcolor="#399de5ff"] ;
173 -> 174 ;
175 [label=<gini = 0.444<br/>samples = 3<br/>value = [1, 0, 2, 0]<br/>class = JP_Sales>, fillcolor="#399de57f"] ;
173 -> 175 ;
176 [label=<gini = 0.0<br/>samples = 11<br/>value = [0, 0, 11, 0]<br/>class = JP_Sales>, fillcolor="#399de5ff"] ;
168 -> 176 ;
177 [label=<Genre_Puzzle &le; 0.5<br/>gini = 0.278<br/>samples = 6<br/>value = [1, 0, 5, 0]<br/>class = JP_Sales>, fillcolor="#399de5cc"] ;
91 -> 177 ;
178 [label=<gini = 0.0<br/>samples = 4<br/>value = [0, 0, 4, 0]<br/>class = JP_Sales>, fillcolor="#399de5ff"] ;
177 -> 178 ;
179 [label=<Rating_T &le; 0.5<br/>gini = 0.5<br/>samples = 2<br/>value = [1, 0, 1, 0]<br/>class = NA_Sales>, fillcolor="#e5813900"] ;
177 -> 179 ;
180 [label=<gini = 0.0<br/>samples = 1<br/>value = [1, 0, 0, 0]<br/>class = NA_Sales>, fillcolor="#e58139ff"] ;
179 -> 180 ;
181 [label=<gini = 0.0<br/>samples = 1<br/>value = [0, 0, 1, 0]<br/>class = JP_Sales>, fillcolor="#399de5ff"] ;
179 -> 181 ;
182 [label=<Genre_Platform &le; 0.5<br/>gini = 0.278<br/>samples = 6<br/>value = [1, 0, 5, 0]<br/>class = JP_Sales>, fillcolor="#399de5cc"] ;
90 -> 182 ;
183 [label=<Genre_Misc &le; 0.5<br/>gini = 0.32<br/>samples = 5<br/>value = [1, 0, 4, 0]<br/>class = JP_Sales>, fillcolor="#399de5bf"] ;
182 -> 183 ;
184 [label=<Genre_Adventure &le; 0.5<br/>gini = 0.375<br/>samples = 4<br/>value = [1, 0, 3, 0]<br/>class = JP_Sales>, fillcolor="#399de5aa"] ;
183 -> 184 ;
185 [label=<gini = 0.444<br/>samples = 3<br/>value = [1, 0, 2, 0]<br/>class = JP_Sales>, fillcolor="#399de57f"] ;
184 -> 185 ;
186 [label=<gini = 0.0<br/>samples = 1<br/>value = [0, 0, 1, 0]<br/>class = JP_Sales>, fillcolor="#399de5ff"] ;
184 -> 186 ;
187 [label=<gini = 0.0<br/>samples = 1<br/>value = [0, 0, 1, 0]<br/>class = JP_Sales>, fillcolor="#399de5ff"] ;
183 -> 187 ;
188 [label=<gini = 0.0<br/>samples = 1<br/>value = [0, 0, 1, 0]<br/>class = JP_Sales>, fillcolor="#399de5ff"] ;
182 -> 188 ;
189 [label=<Genre_Simulation &le; 0.5<br/>gini = 0.32<br/>samples = 5<br/>value = [1, 0, 4, 0]<br/>class = JP_Sales>, fillcolor="#399de5bf"] ;
89 -> 189 ;
190 [label=<gini = 0.0<br/>samples = 4<br/>value = [0, 0, 4, 0]<br/>class = JP_Sales>, fillcolor="#399de5ff"] ;
189 -> 190 ;
191 [label=<gini = 0.0<br/>samples = 1<br/>value = [1, 0, 0, 0]<br/>class = NA_Sales>, fillcolor="#e58139ff"] ;
189 -> 191 ;
192 [label=<Platform_Wii &le; 0.5<br/>gini = 0.14<br/>samples = 80<br/>value = [5, 1, 74, 0]<br/>class = JP_Sales>, fillcolor="#399de5eb"] ;
88 -> 192 ;
193 [label=<Platform_PS &le; 0.5<br/>gini = 0.096<br/>samples = 60<br/>value = [2, 1, 57, 0]<br/>class = JP_Sales>, fillcolor="#399de5f2"] ;
192 -> 193 ;
194 [label=<Genre_Sports &le; 0.5<br/>gini = 0.07<br/>samples = 55<br/>value = [2, 0, 53, 0]<br/>class = JP_Sales>, fillcolor="#399de5f5"] ;
193 -> 194 ;
195 [label=<gini = 0.0<br/>samples = 29<br/>value = [0, 0, 29, 0]<br/>class = JP_Sales>, fillcolor="#399de5ff"] ;
194 -> 195 ;
196 [label=<Platform_DS &le; 0.5<br/>gini = 0.142<br/>samples = 26<br/>value = [2, 0, 24, 0]<br/>class = JP_Sales>, fillcolor="#399de5ea"] ;
194 -> 196 ;
197 [label=<Rating_E &le; 0.5<br/>gini = 0.198<br/>samples = 18<br/>value = [2, 0, 16, 0]<br/>class = JP_Sales>, fillcolor="#399de5df"] ;
196 -> 197 ;
198 [label=<gini = 0.0<br/>samples = 4<br/>value = [0, 0, 4, 0]<br/>class = JP_Sales>, fillcolor="#399de5ff"] ;
197 -> 198 ;
199 [label=<gini = 0.245<br/>samples = 14<br/>value = [2, 0, 12, 0]<br/>class = JP_Sales>, fillcolor="#399de5d4"] ;
197 -> 199 ;
200 [label=<gini = 0.0<br/>samples = 8<br/>value = [0, 0, 8, 0]<br/>class = JP_Sales>, fillcolor="#399de5ff"] ;
196 -> 200 ;
201 [label=<Genre_Racing &le; 0.5<br/>gini = 0.32<br/>samples = 5<br/>value = [0, 1, 4, 0]<br/>class = JP_Sales>, fillcolor="#399de5bf"] ;
193 -> 201 ;
202 [label=<Genre_Shooter &le; 0.5<br/>gini = 0.375<br/>samples = 4<br/>value = [0, 1, 3, 0]<br/>class = JP_Sales>, fillcolor="#399de5aa"] ;
201 -> 202 ;
203 [label=<gini = 0.444<br/>samples = 3<br/>value = [0, 1, 2, 0]<br/>class = JP_Sales>, fillcolor="#399de57f"] ;
202 -> 203 ;
204 [label=<gini = 0.0<br/>samples = 1<br/>value = [0, 0, 1, 0]<br/>class = JP_Sales>, fillcolor="#399de5ff"] ;
202 -> 204 ;
205 [label=<gini = 0.0<br/>samples = 1<br/>value = [0, 0, 1, 0]<br/>class = JP_Sales>, fillcolor="#399de5ff"] ;
201 -> 205 ;
206 [label=<Rating_E &le; 0.5<br/>gini = 0.255<br/>samples = 20<br/>value = [3, 0, 17, 0]<br/>class = JP_Sales>, fillcolor="#399de5d2"] ;
192 -> 206 ;
207 [label=<Genre_Sports &le; 0.5<br/>gini = 0.5<br/>samples = 2<br/>value = [1, 0, 1, 0]<br/>class = NA_Sales>, fillcolor="#e5813900"] ;
206 -> 207 ;
208 [label=<gini = 0.0<br/>samples = 1<br/>value = [1, 0, 0, 0]<br/>class = NA_Sales>, fillcolor="#e58139ff"] ;
207 -> 208 ;
209 [label=<gini = 0.0<br/>samples = 1<br/>value = [0, 0, 1, 0]<br/>class = JP_Sales>, fillcolor="#399de5ff"] ;
207 -> 209 ;
210 [label=<Genre_Misc &le; 0.5<br/>gini = 0.198<br/>samples = 18<br/>value = [2, 0, 16, 0]<br/>class = JP_Sales>, fillcolor="#399de5df"] ;
206 -> 210 ;
211 [label=<Genre_Sports &le; 0.5<br/>gini = 0.278<br/>samples = 12<br/>value = [2, 0, 10, 0]<br/>class = JP_Sales>, fillcolor="#399de5cc"] ;
210 -> 211 ;
212 [label=<Genre_Platform &le; 0.5<br/>gini = 0.5<br/>samples = 2<br/>value = [1, 0, 1, 0]<br/>class = NA_Sales>, fillcolor="#e5813900"] ;
211 -> 212 ;
213 [label=<gini = 0.0<br/>samples = 1<br/>value = [1, 0, 0, 0]<br/>class = NA_Sales>, fillcolor="#e58139ff"] ;
212 -> 213 ;
214 [label=<gini = 0.0<br/>samples = 1<br/>value = [0, 0, 1, 0]<br/>class = JP_Sales>, fillcolor="#399de5ff"] ;
212 -> 214 ;
215 [label=<gini = 0.18<br/>samples = 10<br/>value = [1, 0, 9, 0]<br/>class = JP_Sales>, fillcolor="#399de5e3"] ;
211 -> 215 ;
216 [label=<gini = 0.0<br/>samples = 6<br/>value = [0, 0, 6, 0]<br/>class = JP_Sales>, fillcolor="#399de5ff"] ;
210 -> 216 ;
217 [label=<Publisher_Disney Interactive Studios &le; 0.5<br/>gini = 0.107<br/>samples = 212<br/>value = [12, 0, 200, 0]<br/>class = JP_Sales>, fillcolor="#399de5f0"] ;
87 -> 217 ;
218 [label=<Publisher_Activision &le; 0.5<br/>gini = 0.089<br/>samples = 193<br/>value = [9, 0, 184, 0]<br/>class = JP_Sales>, fillcolor="#399de5f3"] ;
217 -> 218 ;
219 [label=<Publisher_Warner Bros. Interactive Entertainment &le; 0.5<br/>gini = 0.055<br/>samples = 142<br/>value = [4, 0, 138, 0]<br/>class = JP_Sales>, fillcolor="#399de5f8"] ;
218 -> 219 ;
220 [label=<Publisher_505 Games &le; 0.5<br/>gini = 0.017<br/>samples = 115<br/>value = [1, 0, 114, 0]<br/>class = JP_Sales>, fillcolor="#399de5fd"] ;
219 -> 220 ;
221 [label=<gini = 0.0<br/>samples = 101<br/>value = [0, 0, 101, 0]<br/>class = JP_Sales>, fillcolor="#399de5ff"] ;
220 -> 221 ;
222 [label=<Platform_X360 &le; 0.5<br/>gini = 0.133<br/>samples = 14<br/>value = [1, 0, 13, 0]<br/>class = JP_Sales>, fillcolor="#399de5eb"] ;
220 -> 222 ;
223 [label=<gini = 0.0<br/>samples = 12<br/>value = [0, 0, 12, 0]<br/>class = JP_Sales>, fillcolor="#399de5ff"] ;
222 -> 223 ;
224 [label=<Genre_Misc &le; 0.5<br/>gini = 0.5<br/>samples = 2<br/>value = [1, 0, 1, 0]<br/>class = NA_Sales>, fillcolor="#e5813900"] ;
222 -> 224 ;
225 [label=<gini = 0.0<br/>samples = 1<br/>value = [0, 0, 1, 0]<br/>class = JP_Sales>, fillcolor="#399de5ff"] ;
224 -> 225 ;
226 [label=<gini = 0.0<br/>samples = 1<br/>value = [1, 0, 0, 0]<br/>class = NA_Sales>, fillcolor="#e58139ff"] ;
224 -> 226 ;
227 [label=<Platform_DS &le; 0.5<br/>gini = 0.198<br/>samples = 27<br/>value = [3, 0, 24, 0]<br/>class = JP_Sales>, fillcolor="#399de5df"] ;
219 -> 227 ;
228 [label=<Genre_Platform &le; 0.5<br/>gini = 0.236<br/>samples = 22<br/>value = [3, 0, 19, 0]<br/>class = JP_Sales>, fillcolor="#399de5d7"] ;
227 -> 228 ;
229 [label=<Genre_Misc &le; 0.5<br/>gini = 0.255<br/>samples = 20<br/>value = [3, 0, 17, 0]<br/>class = JP_Sales>, fillcolor="#399de5d2"] ;
228 -> 229 ;
230 [label=<Platform_X360 &le; 0.5<br/>gini = 0.266<br/>samples = 19<br/>value = [3, 0, 16, 0]<br/>class = JP_Sales>, fillcolor="#399de5cf"] ;
229 -> 230 ;
231 [label=<gini = 0.245<br/>samples = 7<br/>value = [1, 0, 6, 0]<br/>class = JP_Sales>, fillcolor="#399de5d4"] ;
230 -> 231 ;
232 [label=<gini = 0.278<br/>samples = 12<br/>value = [2, 0, 10, 0]<br/>class = JP_Sales>, fillcolor="#399de5cc"] ;
230 -> 232 ;
233 [label=<gini = 0.0<br/>samples = 1<br/>value = [0, 0, 1, 0]<br/>class = JP_Sales>, fillcolor="#399de5ff"] ;
229 -> 233 ;
234 [label=<gini = 0.0<br/>samples = 2<br/>value = [0, 0, 2, 0]<br/>class = JP_Sales>, fillcolor="#399de5ff"] ;
228 -> 234 ;
235 [label=<gini = 0.0<br/>samples = 5<br/>value = [0, 0, 5, 0]<br/>class = JP_Sales>, fillcolor="#399de5ff"] ;
227 -> 235 ;
236 [label=<Genre_Racing &le; 0.5<br/>gini = 0.177<br/>samples = 51<br/>value = [5, 0, 46, 0]<br/>class = JP_Sales>, fillcolor="#399de5e3"] ;
218 -> 236 ;
237 [label=<Genre_Platform &le; 0.5<br/>gini = 0.153<br/>samples = 48<br/>value = [4, 0, 44, 0]<br/>class = JP_Sales>, fillcolor="#399de5e8"] ;
236 -> 237 ;
238 [label=<Platform_X360 &le; 0.5<br/>gini = 0.13<br/>samples = 43<br/>value = [3, 0, 40, 0]<br/>class = JP_Sales>, fillcolor="#399de5ec"] ;
237 -> 238 ;
239 [label=<Platform_Wii &le; 0.5<br/>gini = 0.198<br/>samples = 27<br/>value = [3, 0, 24, 0]<br/>class = JP_Sales>, fillcolor="#399de5df"] ;
238 -> 239 ;
240 [label=<Genre_Misc &le; 0.5<br/>gini = 0.142<br/>samples = 13<br/>value = [1, 0, 12, 0]<br/>class = JP_Sales>, fillcolor="#399de5ea"] ;
239 -> 240 ;
241 [label=<gini = 0.0<br/>samples = 9<br/>value = [0, 0, 9, 0]<br/>class = JP_Sales>, fillcolor="#399de5ff"] ;
240 -> 241 ;
242 [label=<gini = 0.375<br/>samples = 4<br/>value = [1, 0, 3, 0]<br/>class = JP_Sales>, fillcolor="#399de5aa"] ;
240 -> 242 ;
243 [label=<Genre_Misc &le; 0.5<br/>gini = 0.245<br/>samples = 14<br/>value = [2, 0, 12, 0]<br/>class = JP_Sales>, fillcolor="#399de5d4"] ;
239 -> 243 ;
244 [label=<Genre_Sports &le; 0.5<br/>gini = 0.346<br/>samples = 9<br/>value = [2, 0, 7, 0]<br/>class = JP_Sales>, fillcolor="#399de5b6"] ;
243 -> 244 ;
245 [label=<gini = 0.408<br/>samples = 7<br/>value = [2, 0, 5, 0]<br/>class = JP_Sales>, fillcolor="#399de599"] ;
244 -> 245 ;
246 [label=<gini = 0.0<br/>samples = 2<br/>value = [0, 0, 2, 0]<br/>class = JP_Sales>, fillcolor="#399de5ff"] ;
244 -> 246 ;
247 [label=<gini = 0.0<br/>samples = 5<br/>value = [0, 0, 5, 0]<br/>class = JP_Sales>, fillcolor="#399de5ff"] ;
243 -> 247 ;
248 [label=<gini = 0.0<br/>samples = 16<br/>value = [0, 0, 16, 0]<br/>class = JP_Sales>, fillcolor="#399de5ff"] ;
238 -> 248 ;
249 [label=<Platform_X360 &le; 0.5<br/>gini = 0.32<br/>samples = 5<br/>value = [1, 0, 4, 0]<br/>class = JP_Sales>, fillcolor="#399de5bf"] ;
237 -> 249 ;
250 [label=<gini = 0.0<br/>samples = 3<br/>value = [0, 0, 3, 0]<br/>class = JP_Sales>, fillcolor="#399de5ff"] ;
249 -> 250 ;
251 [label=<gini = 0.5<br/>samples = 2<br/>value = [1, 0, 1, 0]<br/>class = NA_Sales>, fillcolor="#e5813900"] ;
249 -> 251 ;
252 [label=<Platform_X360 &le; 0.5<br/>gini = 0.444<br/>samples = 3<br/>value = [1, 0, 2, 0]<br/>class = JP_Sales>, fillcolor="#399de57f"] ;
236 -> 252 ;
253 [label=<gini = 0.0<br/>samples = 2<br/>value = [0, 0, 2, 0]<br/>class = JP_Sales>, fillcolor="#399de5ff"] ;
252 -> 253 ;
254 [label=<gini = 0.0<br/>samples = 1<br/>value = [1, 0, 0, 0]<br/>class = NA_Sales>, fillcolor="#e58139ff"] ;
252 -> 254 ;
255 [label=<Platform_X360 &le; 0.5<br/>gini = 0.266<br/>samples = 19<br/>value = [3, 0, 16, 0]<br/>class = JP_Sales>, fillcolor="#399de5cf"] ;
217 -> 255 ;
256 [label=<Genre_Adventure &le; 0.5<br/>gini = 0.355<br/>samples = 13<br/>value = [3, 0, 10, 0]<br/>class = JP_Sales>, fillcolor="#399de5b3"] ;
255 -> 256 ;
257 [label=<Platform_DS &le; 0.5<br/>gini = 0.375<br/>samples = 12<br/>value = [3, 0, 9, 0]<br/>class = JP_Sales>, fillcolor="#399de5aa"] ;
256 -> 257 ;
258 [label=<gini = 0.32<br/>samples = 5<br/>value = [1, 0, 4, 0]<br/>class = JP_Sales>, fillcolor="#399de5bf"] ;
257 -> 258 ;
259 [label=<gini = 0.408<br/>samples = 7<br/>value = [2, 0, 5, 0]<br/>class = JP_Sales>, fillcolor="#399de599"] ;
257 -> 259 ;
260 [label=<gini = 0.0<br/>samples = 1<br/>value = [0, 0, 1, 0]<br/>class = JP_Sales>, fillcolor="#399de5ff"] ;
256 -> 260 ;
261 [label=<gini = 0.0<br/>samples = 6<br/>value = [0, 0, 6, 0]<br/>class = JP_Sales>, fillcolor="#399de5ff"] ;
255 -> 261 ;
262 [label=<Genre_Fighting &le; 0.5<br/>gini = 0.375<br/>samples = 4<br/>value = [1, 0, 3, 0]<br/>class = JP_Sales>, fillcolor="#399de5aa"] ;
86 -> 262 ;
263 [label=<gini = 0.0<br/>samples = 2<br/>value = [0, 0, 2, 0]<br/>class = JP_Sales>, fillcolor="#399de5ff"] ;
262 -> 263 ;
264 [label=<gini = 0.5<br/>samples = 2<br/>value = [1, 0, 1, 0]<br/>class = NA_Sales>, fillcolor="#e5813900"] ;
262 -> 264 ;
265 [label=<Genre_Sports &le; 0.5<br/>gini = 0.193<br/>samples = 37<br/>value = [4, 0, 33, 0]<br/>class = JP_Sales>, fillcolor="#399de5e0"] ;
85 -> 265 ;
266 [label=<Platform_X360 &le; 0.5<br/>gini = 0.111<br/>samples = 34<br/>value = [2, 0, 32, 0]<br/>class = JP_Sales>, fillcolor="#399de5ef"] ;
265 -> 266 ;
267 [label=<Genre_Misc &le; 0.5<br/>gini = 0.133<br/>samples = 28<br/>value = [2, 0, 26, 0]<br/>class = JP_Sales>, fillcolor="#399de5eb"] ;
266 -> 267 ;
268 [label=<Rating_T &le; 0.5<br/>gini = 0.153<br/>samples = 24<br/>value = [2, 0, 22, 0]<br/>class = JP_Sales>, fillcolor="#399de5e8"] ;
267 -> 268 ;
269 [label=<Genre_Puzzle &le; 0.5<br/>gini = 0.172<br/>samples = 21<br/>value = [2, 0, 19, 0]<br/>class = JP_Sales>, fillcolor="#399de5e4"] ;
268 -> 269 ;
270 [label=<Genre_Racing &le; 0.5<br/>gini = 0.198<br/>samples = 18<br/>value = [2, 0, 16, 0]<br/>class = JP_Sales>, fillcolor="#399de5df"] ;
269 -> 270 ;
271 [label=<Genre_Platform &le; 0.5<br/>gini = 0.219<br/>samples = 16<br/>value = [2, 0, 14, 0]<br/>class = JP_Sales>, fillcolor="#399de5db"] ;
270 -> 271 ;
272 [label=<Genre_Adventure &le; 0.5<br/>gini = 0.245<br/>samples = 14<br/>value = [2, 0, 12, 0]<br/>class = JP_Sales>, fillcolor="#399de5d4"] ;
271 -> 272 ;
273 [label=<Platform_DS &le; 0.5<br/>gini = 0.26<br/>samples = 13<br/>value = [2, 0, 11, 0]<br/>class = JP_Sales>, fillcolor="#399de5d1"] ;
272 -> 273 ;
274 [label=<Rating_E10+ &le; 0.5<br/>gini = 0.278<br/>samples = 6<br/>value = [1, 0, 5, 0]<br/>class = JP_Sales>, fillcolor="#399de5cc"] ;
273 -> 274 ;
275 [label=<gini = 0.0<br/>samples = 1<br/>value = [0, 0, 1, 0]<br/>class = JP_Sales>, fillcolor="#399de5ff"] ;
274 -> 275 ;
276 [label=<gini = 0.32<br/>samples = 5<br/>value = [1, 0, 4, 0]<br/>class = JP_Sales>, fillcolor="#399de5bf"] ;
274 -> 276 ;
277 [label=<Rating_E10+ &le; 0.5<br/>gini = 0.245<br/>samples = 7<br/>value = [1, 0, 6, 0]<br/>class = JP_Sales>, fillcolor="#399de5d4"] ;
273 -> 277 ;
278 [label=<gini = 0.32<br/>samples = 5<br/>value = [1, 0, 4, 0]<br/>class = JP_Sales>, fillcolor="#399de5bf"] ;
277 -> 278 ;
279 [label=<gini = 0.0<br/>samples = 2<br/>value = [0, 0, 2, 0]<br/>class = JP_Sales>, fillcolor="#399de5ff"] ;
277 -> 279 ;
280 [label=<gini = 0.0<br/>samples = 1<br/>value = [0, 0, 1, 0]<br/>class = JP_Sales>, fillcolor="#399de5ff"] ;
272 -> 280 ;
281 [label=<gini = 0.0<br/>samples = 2<br/>value = [0, 0, 2, 0]<br/>class = JP_Sales>, fillcolor="#399de5ff"] ;
271 -> 281 ;
282 [label=<gini = 0.0<br/>samples = 2<br/>value = [0, 0, 2, 0]<br/>class = JP_Sales>, fillcolor="#399de5ff"] ;
270 -> 282 ;
283 [label=<gini = 0.0<br/>samples = 3<br/>value = [0, 0, 3, 0]<br/>class = JP_Sales>, fillcolor="#399de5ff"] ;
269 -> 283 ;
284 [label=<gini = 0.0<br/>samples = 3<br/>value = [0, 0, 3, 0]<br/>class = JP_Sales>, fillcolor="#399de5ff"] ;
268 -> 284 ;
285 [label=<gini = 0.0<br/>samples = 4<br/>value = [0, 0, 4, 0]<br/>class = JP_Sales>, fillcolor="#399de5ff"] ;
267 -> 285 ;
286 [label=<gini = 0.0<br/>samples = 6<br/>value = [0, 0, 6, 0]<br/>class = JP_Sales>, fillcolor="#399de5ff"] ;
266 -> 286 ;
287 [label=<Platform_DS &le; 0.5<br/>gini = 0.444<br/>samples = 3<br/>value = [2, 0, 1, 0]<br/>class = NA_Sales>, fillcolor="#e581397f"] ;
265 -> 287 ;
288 [label=<gini = 0.5<br/>samples = 2<br/>value = [1, 0, 1, 0]<br/>class = NA_Sales>, fillcolor="#e5813900"] ;
287 -> 288 ;
289 [label=<gini = 0.0<br/>samples = 1<br/>value = [1, 0, 0, 0]<br/>class = NA_Sales>, fillcolor="#e58139ff"] ;
287 -> 289 ;
290 [label=<Platform_DS &le; 0.5<br/>gini = 0.444<br/>samples = 3<br/>value = [1, 0, 2, 0]<br/>class = JP_Sales>, fillcolor="#399de57f"] ;
84 -> 290 ;
291 [label=<gini = 0.0<br/>samples = 2<br/>value = [0, 0, 2, 0]<br/>class = JP_Sales>, fillcolor="#399de5ff"] ;
290 -> 291 ;
292 [label=<gini = 0.0<br/>samples = 1<br/>value = [1, 0, 0, 0]<br/>class = NA_Sales>, fillcolor="#e58139ff"] ;
290 -> 292 ;
293 [label=<Rating_E10+ &le; 0.5<br/>gini = 0.444<br/>samples = 3<br/>value = [1, 0, 2, 0]<br/>class = JP_Sales>, fillcolor="#399de57f"] ;
83 -> 293 ;
294 [label=<gini = 0.0<br/>samples = 2<br/>value = [0, 0, 2, 0]<br/>class = JP_Sales>, fillcolor="#399de5ff"] ;
293 -> 294 ;
295 [label=<gini = 0.0<br/>samples = 1<br/>value = [1, 0, 0, 0]<br/>class = NA_Sales>, fillcolor="#e58139ff"] ;
293 -> 295 ;
296 [label=<Rating_M &le; 0.5<br/>gini = 0.444<br/>samples = 3<br/>value = [1, 0, 2, 0]<br/>class = JP_Sales>, fillcolor="#399de57f"] ;
82 -> 296 ;
297 [label=<gini = 0.0<br/>samples = 2<br/>value = [0, 0, 2, 0]<br/>class = JP_Sales>, fillcolor="#399de5ff"] ;
296 -> 297 ;
298 [label=<gini = 0.0<br/>samples = 1<br/>value = [1, 0, 0, 0]<br/>class = NA_Sales>, fillcolor="#e58139ff"] ;
296 -> 298 ;
299 [label=<Genre_Misc &le; 0.5<br/>gini = 0.444<br/>samples = 3<br/>value = [1, 0, 2, 0]<br/>class = JP_Sales>, fillcolor="#399de57f"] ;
81 -> 299 ;
300 [label=<gini = 0.0<br/>samples = 2<br/>value = [0, 0, 2, 0]<br/>class = JP_Sales>, fillcolor="#399de5ff"] ;
299 -> 300 ;
301 [label=<gini = 0.0<br/>samples = 1<br/>value = [1, 0, 0, 0]<br/>class = NA_Sales>, fillcolor="#e58139ff"] ;
299 -> 301 ;
302 [label=<Rating_E &le; 0.5<br/>gini = 0.251<br/>samples = 35<br/>value = [4, 1, 30, 0]<br/>class = JP_Sales>, fillcolor="#399de5d6"] ;
80 -> 302 ;
303 [label=<Platform_DS &le; 0.5<br/>gini = 0.41<br/>samples = 19<br/>value = [4, 1, 14, 0]<br/>class = JP_Sales>, fillcolor="#399de5aa"] ;
302 -> 303 ;
304 [label=<Rating_E10+ &le; 0.5<br/>gini = 0.36<br/>samples = 17<br/>value = [4, 0, 13, 0]<br/>class = JP_Sales>, fillcolor="#399de5b1"] ;
303 -> 304 ;
305 [label=<Genre_Racing &le; 0.5<br/>gini = 0.408<br/>samples = 14<br/>value = [4, 0, 10, 0]<br/>class = JP_Sales>, fillcolor="#399de599"] ;
304 -> 305 ;
306 [label=<Genre_Adventure &le; 0.5<br/>gini = 0.355<br/>samples = 13<br/>value = [3, 0, 10, 0]<br/>class = JP_Sales>, fillcolor="#399de5b3"] ;
305 -> 306 ;
307 [label=<Genre_Fighting &le; 0.5<br/>gini = 0.298<br/>samples = 11<br/>value = [2, 0, 9, 0]<br/>class = JP_Sales>, fillcolor="#399de5c6"] ;
306 -> 307 ;
308 [label=<Genre_Shooter &le; 0.5<br/>gini = 0.219<br/>samples = 8<br/>value = [1, 0, 7, 0]<br/>class = JP_Sales>, fillcolor="#399de5db"] ;
307 -> 308 ;
309 [label=<gini = 0.0<br/>samples = 4<br/>value = [0, 0, 4, 0]<br/>class = JP_Sales>, fillcolor="#399de5ff"] ;
308 -> 309 ;
310 [label=<Platform_X360 &le; 0.5<br/>gini = 0.375<br/>samples = 4<br/>value = [1, 0, 3, 0]<br/>class = JP_Sales>, fillcolor="#399de5aa"] ;
308 -> 310 ;
311 [label=<gini = 0.0<br/>samples = 1<br/>value = [0, 0, 1, 0]<br/>class = JP_Sales>, fillcolor="#399de5ff"] ;
310 -> 311 ;
312 [label=<gini = 0.444<br/>samples = 3<br/>value = [1, 0, 2, 0]<br/>class = JP_Sales>, fillcolor="#399de57f"] ;
310 -> 312 ;
313 [label=<Platform_Wii &le; 0.5<br/>gini = 0.444<br/>samples = 3<br/>value = [1, 0, 2, 0]<br/>class = JP_Sales>, fillcolor="#399de57f"] ;
307 -> 313 ;
314 [label=<gini = 0.0<br/>samples = 1<br/>value = [0, 0, 1, 0]<br/>class = JP_Sales>, fillcolor="#399de5ff"] ;
313 -> 314 ;
315 [label=<gini = 0.5<br/>samples = 2<br/>value = [1, 0, 1, 0]<br/>class = NA_Sales>, fillcolor="#e5813900"] ;
313 -> 315 ;
316 [label=<Platform_Wii &le; 0.5<br/>gini = 0.5<br/>samples = 2<br/>value = [1, 0, 1, 0]<br/>class = NA_Sales>, fillcolor="#e5813900"] ;
306 -> 316 ;
317 [label=<gini = 0.0<br/>samples = 1<br/>value = [1, 0, 0, 0]<br/>class = NA_Sales>, fillcolor="#e58139ff"] ;
316 -> 317 ;
318 [label=<gini = 0.0<br/>samples = 1<br/>value = [0, 0, 1, 0]<br/>class = JP_Sales>, fillcolor="#399de5ff"] ;
316 -> 318 ;
319 [label=<gini = 0.0<br/>samples = 1<br/>value = [1, 0, 0, 0]<br/>class = NA_Sales>, fillcolor="#e58139ff"] ;
305 -> 319 ;
320 [label=<gini = 0.0<br/>samples = 3<br/>value = [0, 0, 3, 0]<br/>class = JP_Sales>, fillcolor="#399de5ff"] ;
304 -> 320 ;
321 [label=<Genre_Fighting &le; 0.5<br/>gini = 0.5<br/>samples = 2<br/>value = [0, 1, 1, 0]<br/>class = EU_Sales>, fillcolor="#47e53900"] ;
303 -> 321 ;
322 [label=<gini = 0.0<br/>samples = 1<br/>value = [0, 0, 1, 0]<br/>class = JP_Sales>, fillcolor="#399de5ff"] ;
321 -> 322 ;
323 [label=<gini = 0.0<br/>samples = 1<br/>value = [0, 1, 0, 0]<br/>class = EU_Sales>, fillcolor="#47e539ff"] ;
321 -> 323 ;
324 [label=<gini = 0.0<br/>samples = 16<br/>value = [0, 0, 16, 0]<br/>class = JP_Sales>, fillcolor="#399de5ff"] ;
302 -> 324 ;
325 [label=<Genre_Sports &le; 0.5<br/>gini = 0.346<br/>samples = 9<br/>value = [2, 0, 7, 0]<br/>class = JP_Sales>, fillcolor="#399de5b6"] ;
79 -> 325 ;
326 [label=<Genre_Misc &le; 0.5<br/>gini = 0.219<br/>samples = 8<br/>value = [1, 0, 7, 0]<br/>class = JP_Sales>, fillcolor="#399de5db"] ;
325 -> 326 ;
327 [label=<gini = 0.0<br/>samples = 5<br/>value = [0, 0, 5, 0]<br/>class = JP_Sales>, fillcolor="#399de5ff"] ;
326 -> 327 ;
328 [label=<gini = 0.444<br/>samples = 3<br/>value = [1, 0, 2, 0]<br/>class = JP_Sales>, fillcolor="#399de57f"] ;
326 -> 328 ;
329 [label=<gini = 0.0<br/>samples = 1<br/>value = [1, 0, 0, 0]<br/>class = NA_Sales>, fillcolor="#e58139ff"] ;
325 -> 329 ;
330 [label=<Genre_Adventure &le; 0.5<br/>gini = 0.252<br/>samples = 27<br/>value = [4, 0, 23, 0]<br/>class = JP_Sales>, fillcolor="#399de5d3"] ;
78 -> 330 ;
331 [label=<Genre_Puzzle &le; 0.5<br/>gini = 0.083<br/>samples = 23<br/>value = [1, 0, 22, 0]<br/>class = JP_Sales>, fillcolor="#399de5f3"] ;
330 -> 331 ;
332 [label=<gini = 0.0<br/>samples = 19<br/>value = [0, 0, 19, 0]<br/>class = JP_Sales>, fillcolor="#399de5ff"] ;
331 -> 332 ;
333 [label=<Platform_DS &le; 0.5<br/>gini = 0.375<br/>samples = 4<br/>value = [1, 0, 3, 0]<br/>class = JP_Sales>, fillcolor="#399de5aa"] ;
331 -> 333 ;
334 [label=<gini = 0.5<br/>samples = 2<br/>value = [1, 0, 1, 0]<br/>class = NA_Sales>, fillcolor="#e5813900"] ;
333 -> 334 ;
335 [label=<gini = 0.0<br/>samples = 2<br/>value = [0, 0, 2, 0]<br/>class = JP_Sales>, fillcolor="#399de5ff"] ;
333 -> 335 ;
336 [label=<Platform_Wii &le; 0.5<br/>gini = 0.375<br/>samples = 4<br/>value = [3, 0, 1, 0]<br/>class = NA_Sales>, fillcolor="#e58139aa"] ;
330 -> 336 ;
337 [label=<gini = 0.5<br/>samples = 2<br/>value = [1, 0, 1, 0]<br/>class = NA_Sales>, fillcolor="#e5813900"] ;
336 -> 337 ;
338 [label=<gini = 0.0<br/>samples = 2<br/>value = [2, 0, 0, 0]<br/>class = NA_Sales>, fillcolor="#e58139ff"] ;
336 -> 338 ;
339 [label=<Genre_Sports &le; 0.5<br/>gini = 0.206<br/>samples = 60<br/>value = [7, 0, 53, 0]<br/>class = JP_Sales>, fillcolor="#399de5dd"] ;
77 -> 339 ;
340 [label=<Genre_Racing &le; 0.5<br/>gini = 0.137<br/>samples = 54<br/>value = [4, 0, 50, 0]<br/>class = JP_Sales>, fillcolor="#399de5eb"] ;
339 -> 340 ;
341 [label=<Genre_Platform &le; 0.5<br/>gini = 0.111<br/>samples = 51<br/>value = [3, 0, 48, 0]<br/>class = JP_Sales>, fillcolor="#399de5ef"] ;
340 -> 341 ;
342 [label=<Rating_E10+ &le; 0.5<br/>gini = 0.048<br/>samples = 41<br/>value = [1, 0, 40, 0]<br/>class = JP_Sales>, fillcolor="#399de5f9"] ;
341 -> 342 ;
343 [label=<gini = 0.0<br/>samples = 34<br/>value = [0, 0, 34, 0]<br/>class = JP_Sales>, fillcolor="#399de5ff"] ;
342 -> 343 ;
344 [label=<Platform_X360 &le; 0.5<br/>gini = 0.245<br/>samples = 7<br/>value = [1, 0, 6, 0]<br/>class = JP_Sales>, fillcolor="#399de5d4"] ;
342 -> 344 ;
345 [label=<gini = 0.32<br/>samples = 5<br/>value = [1, 0, 4, 0]<br/>class = JP_Sales>, fillcolor="#399de5bf"] ;
344 -> 345 ;
346 [label=<gini = 0.0<br/>samples = 2<br/>value = [0, 0, 2, 0]<br/>class = JP_Sales>, fillcolor="#399de5ff"] ;
344 -> 346 ;
347 [label=<Platform_Wii &le; 0.5<br/>gini = 0.32<br/>samples = 10<br/>value = [2, 0, 8, 0]<br/>class = JP_Sales>, fillcolor="#399de5bf"] ;
341 -> 347 ;
348 [label=<Rating_E &le; 0.5<br/>gini = 0.408<br/>samples = 7<br/>value = [2, 0, 5, 0]<br/>class = JP_Sales>, fillcolor="#399de599"] ;
347 -> 348 ;
349 [label=<gini = 0.5<br/>samples = 2<br/>value = [1, 0, 1, 0]<br/>class = NA_Sales>, fillcolor="#e5813900"] ;
348 -> 349 ;
350 [label=<Platform_X360 &le; 0.5<br/>gini = 0.32<br/>samples = 5<br/>value = [1, 0, 4, 0]<br/>class = JP_Sales>, fillcolor="#399de5bf"] ;
348 -> 350 ;
351 [label=<gini = 0.375<br/>samples = 4<br/>value = [1, 0, 3, 0]<br/>class = JP_Sales>, fillcolor="#399de5aa"] ;
350 -> 351 ;
352 [label=<gini = 0.0<br/>samples = 1<br/>value = [0, 0, 1, 0]<br/>class = JP_Sales>, fillcolor="#399de5ff"] ;
350 -> 352 ;
353 [label=<gini = 0.0<br/>samples = 3<br/>value = [0, 0, 3, 0]<br/>class = JP_Sales>, fillcolor="#399de5ff"] ;
347 -> 353 ;
354 [label=<Platform_Wii &le; 0.5<br/>gini = 0.444<br/>samples = 3<br/>value = [1, 0, 2, 0]<br/>class = JP_Sales>, fillcolor="#399de57f"] ;
340 -> 354 ;
355 [label=<gini = 0.5<br/>samples = 2<br/>value = [1, 0, 1, 0]<br/>class = NA_Sales>, fillcolor="#e5813900"] ;
354 -> 355 ;
356 [label=<gini = 0.0<br/>samples = 1<br/>value = [0, 0, 1, 0]<br/>class = JP_Sales>, fillcolor="#399de5ff"] ;
354 -> 356 ;
357 [label=<Platform_DS &le; 0.5<br/>gini = 0.5<br/>samples = 6<br/>value = [3, 0, 3, 0]<br/>class = NA_Sales>, fillcolor="#e5813900"] ;
339 -> 357 ;
358 [label=<Platform_Wii &le; 0.5<br/>gini = 0.48<br/>samples = 5<br/>value = [2, 0, 3, 0]<br/>class = JP_Sales>, fillcolor="#399de555"] ;
357 -> 358 ;
359 [label=<Rating_E10+ &le; 0.5<br/>gini = 0.444<br/>samples = 3<br/>value = [1, 0, 2, 0]<br/>class = JP_Sales>, fillcolor="#399de57f"] ;
358 -> 359 ;
360 [label=<gini = 0.5<br/>samples = 2<br/>value = [1, 0, 1, 0]<br/>class = NA_Sales>, fillcolor="#e5813900"] ;
359 -> 360 ;
361 [label=<gini = 0.0<br/>samples = 1<br/>value = [0, 0, 1, 0]<br/>class = JP_Sales>, fillcolor="#399de5ff"] ;
359 -> 361 ;
362 [label=<gini = 0.5<br/>samples = 2<br/>value = [1, 0, 1, 0]<br/>class = NA_Sales>, fillcolor="#e5813900"] ;
358 -> 362 ;
363 [label=<gini = 0.0<br/>samples = 1<br/>value = [1, 0, 0, 0]<br/>class = NA_Sales>, fillcolor="#e58139ff"] ;
357 -> 363 ;
364 [label=<Rating_E &le; 0.5<br/>gini = 0.444<br/>samples = 3<br/>value = [0, 1, 2, 0]<br/>class = JP_Sales>, fillcolor="#399de57f"] ;
76 -> 364 ;
365 [label=<gini = 0.5<br/>samples = 2<br/>value = [0, 1, 1, 0]<br/>class = EU_Sales>, fillcolor="#47e53900"] ;
364 -> 365 ;
366 [label=<gini = 0.0<br/>samples = 1<br/>value = [0, 0, 1, 0]<br/>class = JP_Sales>, fillcolor="#399de5ff"] ;
364 -> 366 ;
367 [label=<Genre_Strategy &le; 0.5<br/>gini = 0.444<br/>samples = 3<br/>value = [0, 1, 2, 0]<br/>class = JP_Sales>, fillcolor="#399de57f"] ;
75 -> 367 ;
368 [label=<gini = 0.5<br/>samples = 2<br/>value = [0, 1, 1, 0]<br/>class = EU_Sales>, fillcolor="#47e53900"] ;
367 -> 368 ;
369 [label=<gini = 0.0<br/>samples = 1<br/>value = [0, 0, 1, 0]<br/>class = JP_Sales>, fillcolor="#399de5ff"] ;
367 -> 369 ;
370 [label=<Genre_Puzzle &le; 0.5<br/>gini = 0.269<br/>samples = 25<br/>value = [4, 0, 21, 0]<br/>class = JP_Sales>, fillcolor="#399de5ce"] ;
74 -> 370 ;
371 [label=<gini = 0.0<br/>samples = 17<br/>value = [0, 0, 17, 0]<br/>class = JP_Sales>, fillcolor="#399de5ff"] ;
370 -> 371 ;
372 [label=<Platform_Wii &le; 0.5<br/>gini = 0.5<br/>samples = 8<br/>value = [4, 0, 4, 0]<br/>class = NA_Sales>, fillcolor="#e5813900"] ;
370 -> 372 ;
373 [label=<gini = 0.49<br/>samples = 7<br/>value = [4, 0, 3, 0]<br/>class = NA_Sales>, fillcolor="#e5813940"] ;
372 -> 373 ;
374 [label=<gini = 0.0<br/>samples = 1<br/>value = [0, 0, 1, 0]<br/>class = JP_Sales>, fillcolor="#399de5ff"] ;
372 -> 374 ;
375 [label=<Rating_E &le; 0.5<br/>gini = 0.375<br/>samples = 8<br/>value = [2, 0, 6, 0]<br/>class = JP_Sales>, fillcolor="#399de5aa"] ;
73 -> 375 ;
376 [label=<gini = 0.0<br/>samples = 2<br/>value = [2, 0, 0, 0]<br/>class = NA_Sales>, fillcolor="#e58139ff"] ;
375 -> 376 ;
377 [label=<gini = 0.0<br/>samples = 6<br/>value = [0, 0, 6, 0]<br/>class = JP_Sales>, fillcolor="#399de5ff"] ;
375 -> 377 ;
378 [label=<Rating_T &le; 0.5<br/>gini = 0.188<br/>samples = 143<br/>value = [15, 0, 128, 0]<br/>class = JP_Sales>, fillcolor="#399de5e1"] ;
72 -> 378 ;
379 [label=<Platform_PS &le; 0.5<br/>gini = 0.147<br/>samples = 113<br/>value = [9, 0, 104, 0]<br/>class = JP_Sales>, fillcolor="#399de5e9"] ;
378 -> 379 ;
380 [label=<Genre_Sports &le; 0.5<br/>gini = 0.134<br/>samples = 111<br/>value = [8, 0, 103, 0]<br/>class = JP_Sales>, fillcolor="#399de5eb"] ;
379 -> 380 ;
381 [label=<Genre_Shooter &le; 0.5<br/>gini = 0.111<br/>samples = 102<br/>value = [6, 0, 96, 0]<br/>class = JP_Sales>, fillcolor="#399de5ef"] ;
380 -> 381 ;
382 [label=<Genre_Strategy &le; 0.5<br/>gini = 0.096<br/>samples = 99<br/>value = [5, 0, 94, 0]<br/>class = JP_Sales>, fillcolor="#399de5f1"] ;
381 -> 382 ;
383 [label=<Genre_Simulation &le; 0.5<br/>gini = 0.082<br/>samples = 93<br/>value = [4, 0, 89, 0]<br/>class = JP_Sales>, fillcolor="#399de5f4"] ;
382 -> 383 ;
384 [label=<Genre_Platform &le; 0.5<br/>gini = 0.068<br/>samples = 85<br/>value = [3, 0, 82, 0]<br/>class = JP_Sales>, fillcolor="#399de5f6"] ;
383 -> 384 ;
385 [label=<Platform_DS &le; 0.5<br/>gini = 0.053<br/>samples = 73<br/>value = [2, 0, 71, 0]<br/>class = JP_Sales>, fillcolor="#399de5f8"] ;
384 -> 385 ;
386 [label=<Genre_Misc &le; 0.5<br/>gini = 0.093<br/>samples = 41<br/>value = [2, 0, 39, 0]<br/>class = JP_Sales>, fillcolor="#399de5f2"] ;
385 -> 386 ;
387 [label=<Platform_Wii &le; 0.5<br/>gini = 0.057<br/>samples = 34<br/>value = [1, 0, 33, 0]<br/>class = JP_Sales>, fillcolor="#399de5f7"] ;
386 -> 387 ;
388 [label=<Rating_E &le; 0.5<br/>gini = 0.105<br/>samples = 18<br/>value = [1, 0, 17, 0]<br/>class = JP_Sales>, fillcolor="#399de5f0"] ;
387 -> 388 ;
389 [label=<gini = 0.0<br/>samples = 8<br/>value = [0, 0, 8, 0]<br/>class = JP_Sales>, fillcolor="#399de5ff"] ;
388 -> 389 ;
390 [label=<Genre_Racing &le; 0.5<br/>gini = 0.18<br/>samples = 10<br/>value = [1, 0, 9, 0]<br/>class = JP_Sales>, fillcolor="#399de5e3"] ;
388 -> 390 ;
391 [label=<Genre_Puzzle &le; 0.5<br/>gini = 0.375<br/>samples = 4<br/>value = [1, 0, 3, 0]<br/>class = JP_Sales>, fillcolor="#399de5aa"] ;
390 -> 391 ;
392 [label=<gini = 0.5<br/>samples = 2<br/>value = [1, 0, 1, 0]<br/>class = NA_Sales>, fillcolor="#e5813900"] ;
391 -> 392 ;
393 [label=<gini = 0.0<br/>samples = 2<br/>value = [0, 0, 2, 0]<br/>class = JP_Sales>, fillcolor="#399de5ff"] ;
391 -> 393 ;
394 [label=<gini = 0.0<br/>samples = 6<br/>value = [0, 0, 6, 0]<br/>class = JP_Sales>, fillcolor="#399de5ff"] ;
390 -> 394 ;
395 [label=<gini = 0.0<br/>samples = 16<br/>value = [0, 0, 16, 0]<br/>class = JP_Sales>, fillcolor="#399de5ff"] ;
387 -> 395 ;
396 [label=<Platform_Wii &le; 0.5<br/>gini = 0.245<br/>samples = 7<br/>value = [1, 0, 6, 0]<br/>class = JP_Sales>, fillcolor="#399de5d4"] ;
386 -> 396 ;
397 [label=<gini = 0.0<br/>samples = 1<br/>value = [0, 0, 1, 0]<br/>class = JP_Sales>, fillcolor="#399de5ff"] ;
396 -> 397 ;
398 [label=<gini = 0.278<br/>samples = 6<br/>value = [1, 0, 5, 0]<br/>class = JP_Sales>, fillcolor="#399de5cc"] ;
396 -> 398 ;
399 [label=<gini = 0.0<br/>samples = 32<br/>value = [0, 0, 32, 0]<br/>class = JP_Sales>, fillcolor="#399de5ff"] ;
385 -> 399 ;
400 [label=<Platform_DS &le; 0.5<br/>gini = 0.153<br/>samples = 12<br/>value = [1, 0, 11, 0]<br/>class = JP_Sales>, fillcolor="#399de5e8"] ;
384 -> 400 ;
401 [label=<gini = 0.0<br/>samples = 6<br/>value = [0, 0, 6, 0]<br/>class = JP_Sales>, fillcolor="#399de5ff"] ;
400 -> 401 ;
402 [label=<gini = 0.278<br/>samples = 6<br/>value = [1, 0, 5, 0]<br/>class = JP_Sales>, fillcolor="#399de5cc"] ;
400 -> 402 ;
403 [label=<Platform_DS &le; 0.5<br/>gini = 0.219<br/>samples = 8<br/>value = [1, 0, 7, 0]<br/>class = JP_Sales>, fillcolor="#399de5db"] ;
383 -> 403 ;
404 [label=<gini = 0.0<br/>samples = 2<br/>value = [0, 0, 2, 0]<br/>class = JP_Sales>, fillcolor="#399de5ff"] ;
403 -> 404 ;
405 [label=<gini = 0.278<br/>samples = 6<br/>value = [1, 0, 5, 0]<br/>class = JP_Sales>, fillcolor="#399de5cc"] ;
403 -> 405 ;
406 [label=<Rating_E10+ &le; 0.5<br/>gini = 0.278<br/>samples = 6<br/>value = [1, 0, 5, 0]<br/>class = JP_Sales>, fillcolor="#399de5cc"] ;
382 -> 406 ;
407 [label=<gini = 0.0<br/>samples = 2<br/>value = [0, 0, 2, 0]<br/>class = JP_Sales>, fillcolor="#399de5ff"] ;
406 -> 407 ;
408 [label=<gini = 0.375<br/>samples = 4<br/>value = [1, 0, 3, 0]<br/>class = JP_Sales>, fillcolor="#399de5aa"] ;
406 -> 408 ;
409 [label=<gini = 0.444<br/>samples = 3<br/>value = [1, 0, 2, 0]<br/>class = JP_Sales>, fillcolor="#399de57f"] ;
381 -> 409 ;
410 [label=<Platform_Wii &le; 0.5<br/>gini = 0.346<br/>samples = 9<br/>value = [2, 0, 7, 0]<br/>class = JP_Sales>, fillcolor="#399de5b6"] ;
380 -> 410 ;
411 [label=<gini = 0.0<br/>samples = 4<br/>value = [0, 0, 4, 0]<br/>class = JP_Sales>, fillcolor="#399de5ff"] ;
410 -> 411 ;
412 [label=<gini = 0.48<br/>samples = 5<br/>value = [2, 0, 3, 0]<br/>class = JP_Sales>, fillcolor="#399de555"] ;
410 -> 412 ;
413 [label=<Rating_M &le; 0.5<br/>gini = 0.5<br/>samples = 2<br/>value = [1, 0, 1, 0]<br/>class = NA_Sales>, fillcolor="#e5813900"] ;
379 -> 413 ;
414 [label=<gini = 0.0<br/>samples = 1<br/>value = [1, 0, 0, 0]<br/>class = NA_Sales>, fillcolor="#e58139ff"] ;
413 -> 414 ;
415 [label=<gini = 0.0<br/>samples = 1<br/>value = [0, 0, 1, 0]<br/>class = JP_Sales>, fillcolor="#399de5ff"] ;
413 -> 415 ;
416 [label=<Genre_Adventure &le; 0.5<br/>gini = 0.32<br/>samples = 30<br/>value = [6, 0, 24, 0]<br/>class = JP_Sales>, fillcolor="#399de5bf"] ;
378 -> 416 ;
417 [label=<Genre_Racing &le; 0.5<br/>gini = 0.285<br/>samples = 29<br/>value = [5, 0, 24, 0]<br/>class = JP_Sales>, fillcolor="#399de5ca"] ;
416 -> 417 ;
418 [label=<Platform_Wii &le; 0.5<br/>gini = 0.211<br/>samples = 25<br/>value = [3, 0, 22, 0]<br/>class = JP_Sales>, fillcolor="#399de5dc"] ;
417 -> 418 ;
419 [label=<gini = 0.0<br/>samples = 17<br/>value = [0, 0, 17, 0]<br/>class = JP_Sales>, fillcolor="#399de5ff"] ;
418 -> 419 ;
420 [label=<Genre_Fighting &le; 0.5<br/>gini = 0.469<br/>samples = 8<br/>value = [3, 0, 5, 0]<br/>class = JP_Sales>, fillcolor="#399de566"] ;
418 -> 420 ;
421 [label=<Genre_Misc &le; 0.5<br/>gini = 0.5<br/>samples = 4<br/>value = [2, 0, 2, 0]<br/>class = NA_Sales>, fillcolor="#e5813900"] ;
420 -> 421 ;
422 [label=<gini = 0.5<br/>samples = 2<br/>value = [1, 0, 1, 0]<br/>class = NA_Sales>, fillcolor="#e5813900"] ;
421 -> 422 ;
423 [label=<gini = 0.5<br/>samples = 2<br/>value = [1, 0, 1, 0]<br/>class = NA_Sales>, fillcolor="#e5813900"] ;
421 -> 423 ;
424 [label=<gini = 0.375<br/>samples = 4<br/>value = [1, 0, 3, 0]<br/>class = JP_Sales>, fillcolor="#399de5aa"] ;
420 -> 424 ;
425 [label=<Platform_X360 &le; 0.5<br/>gini = 0.5<br/>samples = 4<br/>value = [2, 0, 2, 0]<br/>class = NA_Sales>, fillcolor="#e5813900"] ;
417 -> 425 ;
426 [label=<gini = 0.0<br/>samples = 2<br/>value = [0, 0, 2, 0]<br/>class = JP_Sales>, fillcolor="#399de5ff"] ;
425 -> 426 ;
427 [label=<gini = 0.0<br/>samples = 2<br/>value = [2, 0, 0, 0]<br/>class = NA_Sales>, fillcolor="#e58139ff"] ;
425 -> 427 ;
428 [label=<gini = 0.0<br/>samples = 1<br/>value = [1, 0, 0, 0]<br/>class = NA_Sales>, fillcolor="#e58139ff"] ;
416 -> 428 ;
429 [label=<Genre_Racing &le; 0.5<br/>gini = 0.192<br/>samples = 216<br/>value = [21, 2, 193, 0]<br/>class = JP_Sales>, fillcolor="#399de5e1"] ;
71 -> 429 ;
430 [label=<Genre_Simulation &le; 0.5<br/>gini = 0.182<br/>samples = 210<br/>value = [19, 2, 189, 0]<br/>class = JP_Sales>, fillcolor="#399de5e3"] ;
429 -> 430 ;
431 [label=<Genre_Shooter &le; 0.5<br/>gini = 0.21<br/>samples = 162<br/>value = [17, 2, 143, 0]<br/>class = JP_Sales>, fillcolor="#399de5de"] ;
430 -> 431 ;
432 [label=<Platform_Wii &le; 0.5<br/>gini = 0.227<br/>samples = 148<br/>value = [17, 2, 129, 0]<br/>class = JP_Sales>, fillcolor="#399de5da"] ;
431 -> 432 ;
433 [label=<Genre_Platform &le; 0.5<br/>gini = 0.205<br/>samples = 97<br/>value = [9, 2, 86, 0]<br/>class = JP_Sales>, fillcolor="#399de5df"] ;
432 -> 433 ;
434 [label=<Genre_Adventure &le; 0.5<br/>gini = 0.185<br/>samples = 89<br/>value = [7, 2, 80, 0]<br/>class = JP_Sales>, fillcolor="#399de5e3"] ;
433 -> 434 ;
435 [label=<Genre_Misc &le; 0.5<br/>gini = 0.18<br/>samples = 81<br/>value = [7, 1, 73, 0]<br/>class = JP_Sales>, fillcolor="#399de5e3"] ;
434 -> 435 ;
436 [label=<Rating_M &le; 0.5<br/>gini = 0.201<br/>samples = 53<br/>value = [6, 0, 47, 0]<br/>class = JP_Sales>, fillcolor="#399de5de"] ;
435 -> 436 ;
437 [label=<Genre_Fighting &le; 0.5<br/>gini = 0.219<br/>samples = 48<br/>value = [6, 0, 42, 0]<br/>class = JP_Sales>, fillcolor="#399de5db"] ;
436 -> 437 ;
438 [label=<Platform_DS &le; 0.5<br/>gini = 0.236<br/>samples = 44<br/>value = [6, 0, 38, 0]<br/>class = JP_Sales>, fillcolor="#399de5d7"] ;
437 -> 438 ;
439 [label=<Genre_Strategy &le; 0.5<br/>gini = 0.32<br/>samples = 15<br/>value = [3, 0, 12, 0]<br/>class = JP_Sales>, fillcolor="#399de5bf"] ;
438 -> 439 ;
440 [label=<Rating_E10+ &le; 0.5<br/>gini = 0.355<br/>samples = 13<br/>value = [3, 0, 10, 0]<br/>class = JP_Sales>, fillcolor="#399de5b3"] ;
439 -> 440 ;
441 [label=<Genre_Sports &le; 0.5<br/>gini = 0.375<br/>samples = 12<br/>value = [3, 0, 9, 0]<br/>class = JP_Sales>, fillcolor="#399de5aa"] ;
440 -> 441 ;
442 [label=<gini = 0.444<br/>samples = 6<br/>value = [2, 0, 4, 0]<br/>class = JP_Sales>, fillcolor="#399de57f"] ;
441 -> 442 ;
443 [label=<Rating_E &le; 0.5<br/>gini = 0.278<br/>samples = 6<br/>value = [1, 0, 5, 0]<br/>class = JP_Sales>, fillcolor="#399de5cc"] ;
441 -> 443 ;
444 [label=<gini = 0.0<br/>samples = 3<br/>value = [0, 0, 3, 0]<br/>class = JP_Sales>, fillcolor="#399de5ff"] ;
443 -> 444 ;
445 [label=<gini = 0.444<br/>samples = 3<br/>value = [1, 0, 2, 0]<br/>class = JP_Sales>, fillcolor="#399de57f"] ;
443 -> 445 ;
446 [label=<gini = 0.0<br/>samples = 1<br/>value = [0, 0, 1, 0]<br/>class = JP_Sales>, fillcolor="#399de5ff"] ;
440 -> 446 ;
447 [label=<gini = 0.0<br/>samples = 2<br/>value = [0, 0, 2, 0]<br/>class = JP_Sales>, fillcolor="#399de5ff"] ;
439 -> 447 ;
448 [label=<Rating_E10+ &le; 0.5<br/>gini = 0.185<br/>samples = 29<br/>value = [3, 0, 26, 0]<br/>class = JP_Sales>, fillcolor="#399de5e2"] ;
438 -> 448 ;
449 [label=<Genre_Sports &le; 0.5<br/>gini = 0.153<br/>samples = 24<br/>value = [2, 0, 22, 0]<br/>class = JP_Sales>, fillcolor="#399de5e8"] ;
448 -> 449 ;
450 [label=<Genre_Puzzle &le; 0.5<br/>gini = 0.111<br/>samples = 17<br/>value = [1, 0, 16, 0]<br/>class = JP_Sales>, fillcolor="#399de5ef"] ;
449 -> 450 ;
451 [label=<gini = 0.0<br/>samples = 9<br/>value = [0, 0, 9, 0]<br/>class = JP_Sales>, fillcolor="#399de5ff"] ;
450 -> 451 ;
452 [label=<gini = 0.219<br/>samples = 8<br/>value = [1, 0, 7, 0]<br/>class = JP_Sales>, fillcolor="#399de5db"] ;
450 -> 452 ;
453 [label=<gini = 0.245<br/>samples = 7<br/>value = [1, 0, 6, 0]<br/>class = JP_Sales>, fillcolor="#399de5d4"] ;
449 -> 453 ;
454 [label=<Genre_Strategy &le; 0.5<br/>gini = 0.32<br/>samples = 5<br/>value = [1, 0, 4, 0]<br/>class = JP_Sales>, fillcolor="#399de5bf"] ;
448 -> 454 ;
455 [label=<gini = 0.0<br/>samples = 3<br/>value = [0, 0, 3, 0]<br/>class = JP_Sales>, fillcolor="#399de5ff"] ;
454 -> 455 ;
456 [label=<gini = 0.5<br/>samples = 2<br/>value = [1, 0, 1, 0]<br/>class = NA_Sales>, fillcolor="#e5813900"] ;
454 -> 456 ;
457 [label=<gini = 0.0<br/>samples = 4<br/>value = [0, 0, 4, 0]<br/>class = JP_Sales>, fillcolor="#399de5ff"] ;
437 -> 457 ;
458 [label=<gini = 0.0<br/>samples = 5<br/>value = [0, 0, 5, 0]<br/>class = JP_Sales>, fillcolor="#399de5ff"] ;
436 -> 458 ;
459 [label=<Rating_E &le; 0.5<br/>gini = 0.135<br/>samples = 28<br/>value = [1, 1, 26, 0]<br/>class = JP_Sales>, fillcolor="#399de5ec"] ;
435 -> 459 ;
460 [label=<gini = 0.0<br/>samples = 11<br/>value = [0, 0, 11, 0]<br/>class = JP_Sales>, fillcolor="#399de5ff"] ;
459 -> 460 ;
461 [label=<Platform_DS &le; 0.5<br/>gini = 0.215<br/>samples = 17<br/>value = [1, 1, 15, 0]<br/>class = JP_Sales>, fillcolor="#399de5df"] ;
459 -> 461 ;
462 [label=<gini = 0.0<br/>samples = 2<br/>value = [0, 0, 2, 0]<br/>class = JP_Sales>, fillcolor="#399de5ff"] ;
461 -> 462 ;
463 [label=<gini = 0.24<br/>samples = 15<br/>value = [1, 1, 13, 0]<br/>class = JP_Sales>, fillcolor="#399de5db"] ;
461 -> 463 ;
464 [label=<Platform_DS &le; 0.5<br/>gini = 0.219<br/>samples = 8<br/>value = [0, 1, 7, 0]<br/>class = JP_Sales>, fillcolor="#399de5db"] ;
434 -> 464 ;
465 [label=<gini = 0.0<br/>samples = 4<br/>value = [0, 0, 4, 0]<br/>class = JP_Sales>, fillcolor="#399de5ff"] ;
464 -> 465 ;
466 [label=<gini = 0.375<br/>samples = 4<br/>value = [0, 1, 3, 0]<br/>class = JP_Sales>, fillcolor="#399de5aa"] ;
464 -> 466 ;
467 [label=<Platform_X360 &le; 0.5<br/>gini = 0.375<br/>samples = 8<br/>value = [2, 0, 6, 0]<br/>class = JP_Sales>, fillcolor="#399de5aa"] ;
433 -> 467 ;
468 [label=<Platform_PS &le; 0.5<br/>gini = 0.278<br/>samples = 6<br/>value = [1, 0, 5, 0]<br/>class = JP_Sales>, fillcolor="#399de5cc"] ;
467 -> 468 ;
469 [label=<gini = 0.32<br/>samples = 5<br/>value = [1, 0, 4, 0]<br/>class = JP_Sales>, fillcolor="#399de5bf"] ;
468 -> 469 ;
470 [label=<gini = 0.0<br/>samples = 1<br/>value = [0, 0, 1, 0]<br/>class = JP_Sales>, fillcolor="#399de5ff"] ;
468 -> 470 ;
471 [label=<gini = 0.5<br/>samples = 2<br/>value = [1, 0, 1, 0]<br/>class = NA_Sales>, fillcolor="#e5813900"] ;
467 -> 471 ;
472 [label=<Genre_Puzzle &le; 0.5<br/>gini = 0.265<br/>samples = 51<br/>value = [8, 0, 43, 0]<br/>class = JP_Sales>, fillcolor="#399de5d0"] ;
432 -> 472 ;
473 [label=<Genre_Sports &le; 0.5<br/>gini = 0.241<br/>samples = 50<br/>value = [7, 0, 43, 0]<br/>class = JP_Sales>, fillcolor="#399de5d5"] ;
472 -> 473 ;
474 [label=<Genre_Adventure &le; 0.5<br/>gini = 0.283<br/>samples = 41<br/>value = [7, 0, 34, 0]<br/>class = JP_Sales>, fillcolor="#399de5ca"] ;
473 -> 474 ;
475 [label=<Rating_T &le; 0.5<br/>gini = 0.251<br/>samples = 34<br/>value = [5, 0, 29, 0]<br/>class = JP_Sales>, fillcolor="#399de5d3"] ;
474 -> 475 ;
476 [label=<Rating_E &le; 0.5<br/>gini = 0.225<br/>samples = 31<br/>value = [4, 0, 27, 0]<br/>class = JP_Sales>, fillcolor="#399de5d9"] ;
475 -> 476 ;
477 [label=<Genre_Misc &le; 0.5<br/>gini = 0.18<br/>samples = 20<br/>value = [2, 0, 18, 0]<br/>class = JP_Sales>, fillcolor="#399de5e3"] ;
476 -> 477 ;
478 [label=<gini = 0.0<br/>samples = 6<br/>value = [0, 0, 6, 0]<br/>class = JP_Sales>, fillcolor="#399de5ff"] ;
477 -> 478 ;
479 [label=<gini = 0.245<br/>samples = 14<br/>value = [2, 0, 12, 0]<br/>class = JP_Sales>, fillcolor="#399de5d4"] ;
477 -> 479 ;
480 [label=<Genre_Misc &le; 0.5<br/>gini = 0.298<br/>samples = 11<br/>value = [2, 0, 9, 0]<br/>class = JP_Sales>, fillcolor="#399de5c6"] ;
476 -> 480 ;
481 [label=<Genre_Platform &le; 0.5<br/>gini = 0.5<br/>samples = 2<br/>value = [1, 0, 1, 0]<br/>class = NA_Sales>, fillcolor="#e5813900"] ;
480 -> 481 ;
482 [label=<gini = 0.0<br/>samples = 1<br/>value = [1, 0, 0, 0]<br/>class = NA_Sales>, fillcolor="#e58139ff"] ;
481 -> 482 ;
483 [label=<gini = 0.0<br/>samples = 1<br/>value = [0, 0, 1, 0]<br/>class = JP_Sales>, fillcolor="#399de5ff"] ;
481 -> 483 ;
484 [label=<gini = 0.198<br/>samples = 9<br/>value = [1, 0, 8, 0]<br/>class = JP_Sales>, fillcolor="#399de5df"] ;
480 -> 484 ;
485 [label=<Genre_Fighting &le; 0.5<br/>gini = 0.444<br/>samples = 3<br/>value = [1, 0, 2, 0]<br/>class = JP_Sales>, fillcolor="#399de57f"] ;
475 -> 485 ;
486 [label=<gini = 0.5<br/>samples = 2<br/>value = [1, 0, 1, 0]<br/>class = NA_Sales>, fillcolor="#e5813900"] ;
485 -> 486 ;
487 [label=<gini = 0.0<br/>samples = 1<br/>value = [0, 0, 1, 0]<br/>class = JP_Sales>, fillcolor="#399de5ff"] ;
485 -> 487 ;
488 [label=<Rating_E10+ &le; 0.5<br/>gini = 0.408<br/>samples = 7<br/>value = [2, 0, 5, 0]<br/>class = JP_Sales>, fillcolor="#399de599"] ;
474 -> 488 ;
489 [label=<Rating_M &le; 0.5<br/>gini = 0.278<br/>samples = 6<br/>value = [1, 0, 5, 0]<br/>class = JP_Sales>, fillcolor="#399de5cc"] ;
488 -> 489 ;
490 [label=<gini = 0.0<br/>samples = 4<br/>value = [0, 0, 4, 0]<br/>class = JP_Sales>, fillcolor="#399de5ff"] ;
489 -> 490 ;
491 [label=<gini = 0.5<br/>samples = 2<br/>value = [1, 0, 1, 0]<br/>class = NA_Sales>, fillcolor="#e5813900"] ;
489 -> 491 ;
492 [label=<gini = 0.0<br/>samples = 1<br/>value = [1, 0, 0, 0]<br/>class = NA_Sales>, fillcolor="#e58139ff"] ;
488 -> 492 ;
493 [label=<gini = 0.0<br/>samples = 9<br/>value = [0, 0, 9, 0]<br/>class = JP_Sales>, fillcolor="#399de5ff"] ;
473 -> 493 ;
494 [label=<gini = 0.0<br/>samples = 1<br/>value = [1, 0, 0, 0]<br/>class = NA_Sales>, fillcolor="#e58139ff"] ;
472 -> 494 ;
495 [label=<gini = 0.0<br/>samples = 14<br/>value = [0, 0, 14, 0]<br/>class = JP_Sales>, fillcolor="#399de5ff"] ;
431 -> 495 ;
496 [label=<Platform_DS &le; 0.5<br/>gini = 0.08<br/>samples = 48<br/>value = [2, 0, 46, 0]<br/>class = JP_Sales>, fillcolor="#399de5f4"] ;
430 -> 496 ;
497 [label=<gini = 0.0<br/>samples = 11<br/>value = [0, 0, 11, 0]<br/>class = JP_Sales>, fillcolor="#399de5ff"] ;
496 -> 497 ;
498 [label=<Rating_E &le; 0.5<br/>gini = 0.102<br/>samples = 37<br/>value = [2, 0, 35, 0]<br/>class = JP_Sales>, fillcolor="#399de5f0"] ;
496 -> 498 ;
499 [label=<gini = 0.0<br/>samples = 1<br/>value = [0, 0, 1, 0]<br/>class = JP_Sales>, fillcolor="#399de5ff"] ;
498 -> 499 ;
500 [label=<gini = 0.105<br/>samples = 36<br/>value = [2, 0, 34, 0]<br/>class = JP_Sales>, fillcolor="#399de5f0"] ;
498 -> 500 ;
501 [label=<Rating_T &le; 0.5<br/>gini = 0.444<br/>samples = 6<br/>value = [2, 0, 4, 0]<br/>class = JP_Sales>, fillcolor="#399de57f"] ;
429 -> 501 ;
502 [label=<gini = 0.0<br/>samples = 4<br/>value = [0, 0, 4, 0]<br/>class = JP_Sales>, fillcolor="#399de5ff"] ;
501 -> 502 ;
503 [label=<gini = 0.0<br/>samples = 2<br/>value = [2, 0, 0, 0]<br/>class = NA_Sales>, fillcolor="#e58139ff"] ;
501 -> 503 ;
504 [label=<Rating_M &le; 0.5<br/>gini = 0.381<br/>samples = 17<br/>value = [3, 1, 13, 0]<br/>class = JP_Sales>, fillcolor="#399de5b6"] ;
70 -> 504 ;
505 [label=<Rating_E &le; 0.5<br/>gini = 0.153<br/>samples = 12<br/>value = [0, 1, 11, 0]<br/>class = JP_Sales>, fillcolor="#399de5e8"] ;
504 -> 505 ;
506 [label=<gini = 0.0<br/>samples = 5<br/>value = [0, 0, 5, 0]<br/>class = JP_Sales>, fillcolor="#399de5ff"] ;
505 -> 506 ;
507 [label=<Genre_Puzzle &le; 0.5<br/>gini = 0.245<br/>samples = 7<br/>value = [0, 1, 6, 0]<br/>class = JP_Sales>, fillcolor="#399de5d4"] ;
505 -> 507 ;
508 [label=<Genre_Shooter &le; 0.5<br/>gini = 0.375<br/>samples = 4<br/>value = [0, 1, 3, 0]<br/>class = JP_Sales>, fillcolor="#399de5aa"] ;
507 -> 508 ;
509 [label=<Genre_Simulation &le; 0.5<br/>gini = 0.5<br/>samples = 2<br/>value = [0, 1, 1, 0]<br/>class = EU_Sales>, fillcolor="#47e53900"] ;
508 -> 509 ;
510 [label=<gini = 0.0<br/>samples = 1<br/>value = [0, 1, 0, 0]<br/>class = EU_Sales>, fillcolor="#47e539ff"] ;
509 -> 510 ;
511 [label=<gini = 0.0<br/>samples = 1<br/>value = [0, 0, 1, 0]<br/>class = JP_Sales>, fillcolor="#399de5ff"] ;
509 -> 511 ;
512 [label=<gini = 0.0<br/>samples = 2<br/>value = [0, 0, 2, 0]<br/>class = JP_Sales>, fillcolor="#399de5ff"] ;
508 -> 512 ;
513 [label=<gini = 0.0<br/>samples = 3<br/>value = [0, 0, 3, 0]<br/>class = JP_Sales>, fillcolor="#399de5ff"] ;
507 -> 513 ;
514 [label=<Genre_Adventure &le; 0.5<br/>gini = 0.48<br/>samples = 5<br/>value = [3, 0, 2, 0]<br/>class = NA_Sales>, fillcolor="#e5813955"] ;
504 -> 514 ;
515 [label=<Genre_Shooter &le; 0.5<br/>gini = 0.375<br/>samples = 4<br/>value = [3, 0, 1, 0]<br/>class = NA_Sales>, fillcolor="#e58139aa"] ;
514 -> 515 ;
516 [label=<gini = 0.0<br/>samples = 3<br/>value = [3, 0, 0, 0]<br/>class = NA_Sales>, fillcolor="#e58139ff"] ;
515 -> 516 ;
517 [label=<gini = 0.0<br/>samples = 1<br/>value = [0, 0, 1, 0]<br/>class = JP_Sales>, fillcolor="#399de5ff"] ;
515 -> 517 ;
518 [label=<gini = 0.0<br/>samples = 1<br/>value = [0, 0, 1, 0]<br/>class = JP_Sales>, fillcolor="#399de5ff"] ;
514 -> 518 ;
519 [label=<Platform_Wii &le; 0.5<br/>gini = 0.5<br/>samples = 2<br/>value = [1, 0, 1, 0]<br/>class = NA_Sales>, fillcolor="#e5813900"] ;
69 -> 519 ;
520 [label=<gini = 0.0<br/>samples = 1<br/>value = [0, 0, 1, 0]<br/>class = JP_Sales>, fillcolor="#399de5ff"] ;
519 -> 520 ;
521 [label=<gini = 0.0<br/>samples = 1<br/>value = [1, 0, 0, 0]<br/>class = NA_Sales>, fillcolor="#e58139ff"] ;
519 -> 521 ;
522 [label=<Genre_Misc &le; 0.5<br/>gini = 0.5<br/>samples = 2<br/>value = [1, 0, 1, 0]<br/>class = NA_Sales>, fillcolor="#e5813900"] ;
68 -> 522 ;
523 [label=<gini = 0.0<br/>samples = 1<br/>value = [0, 0, 1, 0]<br/>class = JP_Sales>, fillcolor="#399de5ff"] ;
522 -> 523 ;
524 [label=<gini = 0.0<br/>samples = 1<br/>value = [1, 0, 0, 0]<br/>class = NA_Sales>, fillcolor="#e58139ff"] ;
522 -> 524 ;
525 [label=<Genre_Puzzle &le; 0.5<br/>gini = 0.5<br/>samples = 2<br/>value = [1, 0, 1, 0]<br/>class = NA_Sales>, fillcolor="#e5813900"] ;
67 -> 525 ;
526 [label=<gini = 0.0<br/>samples = 1<br/>value = [1, 0, 0, 0]<br/>class = NA_Sales>, fillcolor="#e58139ff"] ;
525 -> 526 ;
527 [label=<gini = 0.0<br/>samples = 1<br/>value = [0, 0, 1, 0]<br/>class = JP_Sales>, fillcolor="#399de5ff"] ;
525 -> 527 ;
528 [label=<Platform_Wii &le; 0.5<br/>gini = 0.291<br/>samples = 34<br/>value = [6, 0, 28, 0]<br/>class = JP_Sales>, fillcolor="#399de5c8"] ;
66 -> 528 ;
529 [label=<Genre_Shooter &le; 0.5<br/>gini = 0.198<br/>samples = 27<br/>value = [3, 0, 24, 0]<br/>class = JP_Sales>, fillcolor="#399de5df"] ;
528 -> 529 ;
530 [label=<Genre_Puzzle &le; 0.5<br/>gini = 0.153<br/>samples = 24<br/>value = [2, 0, 22, 0]<br/>class = JP_Sales>, fillcolor="#399de5e8"] ;
529 -> 530 ;
531 [label=<Platform_X360 &le; 0.5<br/>gini = 0.1<br/>samples = 19<br/>value = [1, 0, 18, 0]<br/>class = JP_Sales>, fillcolor="#399de5f1"] ;
530 -> 531 ;
532 [label=<gini = 0.0<br/>samples = 11<br/>value = [0, 0, 11, 0]<br/>class = JP_Sales>, fillcolor="#399de5ff"] ;
531 -> 532 ;
533 [label=<Genre_Strategy &le; 0.5<br/>gini = 0.219<br/>samples = 8<br/>value = [1, 0, 7, 0]<br/>class = JP_Sales>, fillcolor="#399de5db"] ;
531 -> 533 ;
534 [label=<Rating_T &le; 0.5<br/>gini = 0.278<br/>samples = 6<br/>value = [1, 0, 5, 0]<br/>class = JP_Sales>, fillcolor="#399de5cc"] ;
533 -> 534 ;
535 [label=<gini = 0.0<br/>samples = 2<br/>value = [0, 0, 2, 0]<br/>class = JP_Sales>, fillcolor="#399de5ff"] ;
534 -> 535 ;
536 [label=<gini = 0.375<br/>samples = 4<br/>value = [1, 0, 3, 0]<br/>class = JP_Sales>, fillcolor="#399de5aa"] ;
534 -> 536 ;
537 [label=<gini = 0.0<br/>samples = 2<br/>value = [0, 0, 2, 0]<br/>class = JP_Sales>, fillcolor="#399de5ff"] ;
533 -> 537 ;
538 [label=<gini = 0.32<br/>samples = 5<br/>value = [1, 0, 4, 0]<br/>class = JP_Sales>, fillcolor="#399de5bf"] ;
530 -> 538 ;
539 [label=<Platform_X360 &le; 0.5<br/>gini = 0.444<br/>samples = 3<br/>value = [1, 0, 2, 0]<br/>class = JP_Sales>, fillcolor="#399de57f"] ;
529 -> 539 ;
540 [label=<gini = 0.0<br/>samples = 1<br/>value = [0, 0, 1, 0]<br/>class = JP_Sales>, fillcolor="#399de5ff"] ;
539 -> 540 ;
541 [label=<gini = 0.5<br/>samples = 2<br/>value = [1, 0, 1, 0]<br/>class = NA_Sales>, fillcolor="#e5813900"] ;
539 -> 541 ;
542 [label=<Rating_E10+ &le; 0.5<br/>gini = 0.49<br/>samples = 7<br/>value = [3, 0, 4, 0]<br/>class = JP_Sales>, fillcolor="#399de540"] ;
528 -> 542 ;
543 [label=<Genre_Shooter &le; 0.5<br/>gini = 0.48<br/>samples = 5<br/>value = [3, 0, 2, 0]<br/>class = NA_Sales>, fillcolor="#e5813955"] ;
542 -> 543 ;
544 [label=<Genre_Platform &le; 0.5<br/>gini = 0.375<br/>samples = 4<br/>value = [3, 0, 1, 0]<br/>class = NA_Sales>, fillcolor="#e58139aa"] ;
543 -> 544 ;
545 [label=<gini = 0.0<br/>samples = 3<br/>value = [3, 0, 0, 0]<br/>class = NA_Sales>, fillcolor="#e58139ff"] ;
544 -> 545 ;
546 [label=<gini = 0.0<br/>samples = 1<br/>value = [0, 0, 1, 0]<br/>class = JP_Sales>, fillcolor="#399de5ff"] ;
544 -> 546 ;
547 [label=<gini = 0.0<br/>samples = 1<br/>value = [0, 0, 1, 0]<br/>class = JP_Sales>, fillcolor="#399de5ff"] ;
543 -> 547 ;
548 [label=<gini = 0.0<br/>samples = 2<br/>value = [0, 0, 2, 0]<br/>class = JP_Sales>, fillcolor="#399de5ff"] ;
542 -> 548 ;
549 [label=<Platform_X360 &le; 0.5<br/>gini = 0.444<br/>samples = 6<br/>value = [2, 0, 4, 0]<br/>class = JP_Sales>, fillcolor="#399de57f"] ;
65 -> 549 ;
550 [label=<Genre_Adventure &le; 0.5<br/>gini = 0.444<br/>samples = 3<br/>value = [2, 0, 1, 0]<br/>class = NA_Sales>, fillcolor="#e581397f"] ;
549 -> 550 ;
551 [label=<gini = 0.0<br/>samples = 1<br/>value = [0, 0, 1, 0]<br/>class = JP_Sales>, fillcolor="#399de5ff"] ;
550 -> 551 ;
552 [label=<gini = 0.0<br/>samples = 2<br/>value = [2, 0, 0, 0]<br/>class = NA_Sales>, fillcolor="#e58139ff"] ;
550 -> 552 ;
553 [label=<gini = 0.0<br/>samples = 3<br/>value = [0, 0, 3, 0]<br/>class = JP_Sales>, fillcolor="#399de5ff"] ;
549 -> 553 ;
554 [label=<Platform_Wii &le; 0.5<br/>gini = 0.444<br/>samples = 6<br/>value = [2, 0, 4, 0]<br/>class = JP_Sales>, fillcolor="#399de57f"] ;
64 -> 554 ;
555 [label=<gini = 0.0<br/>samples = 3<br/>value = [0, 0, 3, 0]<br/>class = JP_Sales>, fillcolor="#399de5ff"] ;
554 -> 555 ;
556 [label=<gini = 0.444<br/>samples = 3<br/>value = [2, 0, 1, 0]<br/>class = NA_Sales>, fillcolor="#e581397f"] ;
554 -> 556 ;
557 [label=<Platform_DS &le; 0.5<br/>gini = 0.5<br/>samples = 2<br/>value = [0, 1, 1, 0]<br/>class = EU_Sales>, fillcolor="#47e53900"] ;
63 -> 557 ;
558 [label=<gini = 0.0<br/>samples = 1<br/>value = [0, 1, 0, 0]<br/>class = EU_Sales>, fillcolor="#47e539ff"] ;
557 -> 558 ;
559 [label=<gini = 0.0<br/>samples = 1<br/>value = [0, 0, 1, 0]<br/>class = JP_Sales>, fillcolor="#399de5ff"] ;
557 -> 559 ;
560 [label=<Genre_Shooter &le; 0.5<br/>gini = 0.5<br/>samples = 2<br/>value = [0, 1, 1, 0]<br/>class = EU_Sales>, fillcolor="#47e53900"] ;
62 -> 560 ;
561 [label=<gini = 0.0<br/>samples = 1<br/>value = [0, 0, 1, 0]<br/>class = JP_Sales>, fillcolor="#399de5ff"] ;
560 -> 561 ;
562 [label=<gini = 0.0<br/>samples = 1<br/>value = [0, 1, 0, 0]<br/>class = EU_Sales>, fillcolor="#47e539ff"] ;
560 -> 562 ;
563 [label=<Genre_Sports &le; 0.5<br/>gini = 0.285<br/>samples = 80<br/>value = [7, 6, 67, 0]<br/>class = JP_Sales>, fillcolor="#399de5d2"] ;
61 -> 563 ;
564 [label=<Platform_DS &le; 0.5<br/>gini = 0.162<br/>samples = 69<br/>value = [2, 4, 63, 0]<br/>class = JP_Sales>, fillcolor="#399de5e7"] ;
563 -> 564 ;
565 [label=<Rating_T &le; 0.5<br/>gini = 0.087<br/>samples = 44<br/>value = [2, 0, 42, 0]<br/>class = JP_Sales>, fillcolor="#399de5f3"] ;
564 -> 565 ;
566 [label=<Rating_E &le; 0.5<br/>gini = 0.124<br/>samples = 30<br/>value = [2, 0, 28, 0]<br/>class = JP_Sales>, fillcolor="#399de5ed"] ;
565 -> 566 ;
567 [label=<Genre_Simulation &le; 0.5<br/>gini = 0.159<br/>samples = 23<br/>value = [2, 0, 21, 0]<br/>class = JP_Sales>, fillcolor="#399de5e7"] ;
566 -> 567 ;
568 [label=<Platform_Wii &le; 0.5<br/>gini = 0.198<br/>samples = 18<br/>value = [2, 0, 16, 0]<br/>class = JP_Sales>, fillcolor="#399de5df"] ;
567 -> 568 ;
569 [label=<Rating_M &le; 0.5<br/>gini = 0.153<br/>samples = 12<br/>value = [1, 0, 11, 0]<br/>class = JP_Sales>, fillcolor="#399de5e8"] ;
568 -> 569 ;
570 [label=<gini = 0.0<br/>samples = 3<br/>value = [0, 0, 3, 0]<br/>class = JP_Sales>, fillcolor="#399de5ff"] ;
569 -> 570 ;
571 [label=<Genre_Fighting &le; 0.5<br/>gini = 0.198<br/>samples = 9<br/>value = [1, 0, 8, 0]<br/>class = JP_Sales>, fillcolor="#399de5df"] ;
569 -> 571 ;
572 [label=<Genre_Shooter &le; 0.5<br/>gini = 0.219<br/>samples = 8<br/>value = [1, 0, 7, 0]<br/>class = JP_Sales>, fillcolor="#399de5db"] ;
571 -> 572 ;
573 [label=<gini = 0.245<br/>samples = 7<br/>value = [1, 0, 6, 0]<br/>class = JP_Sales>, fillcolor="#399de5d4"] ;
572 -> 573 ;
574 [label=<gini = 0.0<br/>samples = 1<br/>value = [0, 0, 1, 0]<br/>class = JP_Sales>, fillcolor="#399de5ff"] ;
572 -> 574 ;
575 [label=<gini = 0.0<br/>samples = 1<br/>value = [0, 0, 1, 0]<br/>class = JP_Sales>, fillcolor="#399de5ff"] ;
571 -> 575 ;
576 [label=<Rating_M &le; 0.5<br/>gini = 0.278<br/>samples = 6<br/>value = [1, 0, 5, 0]<br/>class = JP_Sales>, fillcolor="#399de5cc"] ;
568 -> 576 ;
577 [label=<Genre_Adventure &le; 0.5<br/>gini = 0.375<br/>samples = 4<br/>value = [1, 0, 3, 0]<br/>class = JP_Sales>, fillcolor="#399de5aa"] ;
576 -> 577 ;
578 [label=<Genre_Misc &le; 0.5<br/>gini = 0.444<br/>samples = 3<br/>value = [1, 0, 2, 0]<br/>class = JP_Sales>, fillcolor="#399de57f"] ;
577 -> 578 ;
579 [label=<Genre_Platform &le; 0.5<br/>gini = 0.5<br/>samples = 2<br/>value = [1, 0, 1, 0]<br/>class = NA_Sales>, fillcolor="#e5813900"] ;
578 -> 579 ;
580 [label=<gini = 0.0<br/>samples = 1<br/>value = [1, 0, 0, 0]<br/>class = NA_Sales>, fillcolor="#e58139ff"] ;
579 -> 580 ;
581 [label=<gini = 0.0<br/>samples = 1<br/>value = [0, 0, 1, 0]<br/>class = JP_Sales>, fillcolor="#399de5ff"] ;
579 -> 581 ;
582 [label=<gini = 0.0<br/>samples = 1<br/>value = [0, 0, 1, 0]<br/>class = JP_Sales>, fillcolor="#399de5ff"] ;
578 -> 582 ;
583 [label=<gini = 0.0<br/>samples = 1<br/>value = [0, 0, 1, 0]<br/>class = JP_Sales>, fillcolor="#399de5ff"] ;
577 -> 583 ;
584 [label=<gini = 0.0<br/>samples = 2<br/>value = [0, 0, 2, 0]<br/>class = JP_Sales>, fillcolor="#399de5ff"] ;
576 -> 584 ;
585 [label=<gini = 0.0<br/>samples = 5<br/>value = [0, 0, 5, 0]<br/>class = JP_Sales>, fillcolor="#399de5ff"] ;
567 -> 585 ;
586 [label=<gini = 0.0<br/>samples = 7<br/>value = [0, 0, 7, 0]<br/>class = JP_Sales>, fillcolor="#399de5ff"] ;
566 -> 586 ;
587 [label=<gini = 0.0<br/>samples = 14<br/>value = [0, 0, 14, 0]<br/>class = JP_Sales>, fillcolor="#399de5ff"] ;
565 -> 587 ;
588 [label=<Genre_Misc &le; 0.5<br/>gini = 0.269<br/>samples = 25<br/>value = [0, 4, 21, 0]<br/>class = JP_Sales>, fillcolor="#399de5ce"] ;
564 -> 588 ;
589 [label=<Genre_Adventure &le; 0.5<br/>gini = 0.188<br/>samples = 19<br/>value = [0, 2, 17, 0]<br/>class = JP_Sales>, fillcolor="#399de5e1"] ;
588 -> 589 ;
590 [label=<gini = 0.0<br/>samples = 12<br/>value = [0, 0, 12, 0]<br/>class = JP_Sales>, fillcolor="#399de5ff"] ;
589 -> 590 ;
591 [label=<Rating_E &le; 0.5<br/>gini = 0.408<br/>samples = 7<br/>value = [0, 2, 5, 0]<br/>class = JP_Sales>, fillcolor="#399de599"] ;
589 -> 591 ;
592 [label=<Rating_E10+ &le; 0.5<br/>gini = 0.5<br/>samples = 4<br/>value = [0, 2, 2, 0]<br/>class = EU_Sales>, fillcolor="#47e53900"] ;
591 -> 592 ;
593 [label=<gini = 0.5<br/>samples = 2<br/>value = [0, 1, 1, 0]<br/>class = EU_Sales>, fillcolor="#47e53900"] ;
592 -> 593 ;
594 [label=<gini = 0.5<br/>samples = 2<br/>value = [0, 1, 1, 0]<br/>class = EU_Sales>, fillcolor="#47e53900"] ;
592 -> 594 ;
595 [label=<gini = 0.0<br/>samples = 3<br/>value = [0, 0, 3, 0]<br/>class = JP_Sales>, fillcolor="#399de5ff"] ;
591 -> 595 ;
596 [label=<Rating_T &le; 0.5<br/>gini = 0.444<br/>samples = 6<br/>value = [0, 2, 4, 0]<br/>class = JP_Sales>, fillcolor="#399de57f"] ;
588 -> 596 ;
597 [label=<Rating_E10+ &le; 0.5<br/>gini = 0.5<br/>samples = 4<br/>value = [0, 2, 2, 0]<br/>class = EU_Sales>, fillcolor="#47e53900"] ;
596 -> 597 ;
598 [label=<gini = 0.5<br/>samples = 2<br/>value = [0, 1, 1, 0]<br/>class = EU_Sales>, fillcolor="#47e53900"] ;
597 -> 598 ;
599 [label=<gini = 0.5<br/>samples = 2<br/>value = [0, 1, 1, 0]<br/>class = EU_Sales>, fillcolor="#47e53900"] ;
597 -> 599 ;
600 [label=<gini = 0.0<br/>samples = 2<br/>value = [0, 0, 2, 0]<br/>class = JP_Sales>, fillcolor="#399de5ff"] ;
596 -> 600 ;
601 [label=<Platform_X360 &le; 0.5<br/>gini = 0.628<br/>samples = 11<br/>value = [5, 2, 4, 0]<br/>class = NA_Sales>, fillcolor="#e5813924"] ;
563 -> 601 ;
602 [label=<Platform_Wii &le; 0.5<br/>gini = 0.611<br/>samples = 6<br/>value = [1, 2, 3, 0]<br/>class = JP_Sales>, fillcolor="#399de540"] ;
601 -> 602 ;
603 [label=<gini = 0.0<br/>samples = 1<br/>value = [0, 1, 0, 0]<br/>class = EU_Sales>, fillcolor="#47e539ff"] ;
602 -> 603 ;
604 [label=<gini = 0.56<br/>samples = 5<br/>value = [1, 1, 3, 0]<br/>class = JP_Sales>, fillcolor="#399de57f"] ;
602 -> 604 ;
605 [label=<gini = 0.32<br/>samples = 5<br/>value = [4, 0, 1, 0]<br/>class = NA_Sales>, fillcolor="#e58139bf"] ;
601 -> 605 ;
606 [label=<Genre_Simulation &le; 0.5<br/>gini = 0.48<br/>samples = 5<br/>value = [2, 0, 3, 0]<br/>class = JP_Sales>, fillcolor="#399de555"] ;
60 -> 606 ;
607 [label=<Genre_Misc &le; 0.5<br/>gini = 0.444<br/>samples = 3<br/>value = [2, 0, 1, 0]<br/>class = NA_Sales>, fillcolor="#e581397f"] ;
606 -> 607 ;
608 [label=<gini = 0.0<br/>samples = 2<br/>value = [2, 0, 0, 0]<br/>class = NA_Sales>, fillcolor="#e58139ff"] ;
607 -> 608 ;
609 [label=<gini = 0.0<br/>samples = 1<br/>value = [0, 0, 1, 0]<br/>class = JP_Sales>, fillcolor="#399de5ff"] ;
607 -> 609 ;
610 [label=<gini = 0.0<br/>samples = 2<br/>value = [0, 0, 2, 0]<br/>class = JP_Sales>, fillcolor="#399de5ff"] ;
606 -> 610 ;
611 [label=<Genre_Simulation &le; 0.5<br/>gini = 0.334<br/>samples = 33<br/>value = [7, 0, 26, 0]<br/>class = JP_Sales>, fillcolor="#399de5ba"] ;
59 -> 611 ;
612 [label=<Genre_Platform &le; 0.5<br/>gini = 0.271<br/>samples = 31<br/>value = [5, 0, 26, 0]<br/>class = JP_Sales>, fillcolor="#399de5ce"] ;
611 -> 612 ;
613 [label=<Rating_T &le; 0.5<br/>gini = 0.231<br/>samples = 30<br/>value = [4, 0, 26, 0]<br/>class = JP_Sales>, fillcolor="#399de5d8"] ;
612 -> 613 ;
614 [label=<Genre_Strategy &le; 0.5<br/>gini = 0.1<br/>samples = 19<br/>value = [1, 0, 18, 0]<br/>class = JP_Sales>, fillcolor="#399de5f1"] ;
613 -> 614 ;
615 [label=<gini = 0.0<br/>samples = 18<br/>value = [0, 0, 18, 0]<br/>class = JP_Sales>, fillcolor="#399de5ff"] ;
614 -> 615 ;
616 [label=<gini = 0.0<br/>samples = 1<br/>value = [1, 0, 0, 0]<br/>class = NA_Sales>, fillcolor="#e58139ff"] ;
614 -> 616 ;
617 [label=<Genre_Racing &le; 0.5<br/>gini = 0.397<br/>samples = 11<br/>value = [3, 0, 8, 0]<br/>class = JP_Sales>, fillcolor="#399de59f"] ;
613 -> 617 ;
618 [label=<Genre_Misc &le; 0.5<br/>gini = 0.32<br/>samples = 10<br/>value = [2, 0, 8, 0]<br/>class = JP_Sales>, fillcolor="#399de5bf"] ;
617 -> 618 ;
619 [label=<gini = 0.0<br/>samples = 4<br/>value = [0, 0, 4, 0]<br/>class = JP_Sales>, fillcolor="#399de5ff"] ;
618 -> 619 ;
620 [label=<gini = 0.444<br/>samples = 6<br/>value = [2, 0, 4, 0]<br/>class = JP_Sales>, fillcolor="#399de57f"] ;
618 -> 620 ;
621 [label=<gini = 0.0<br/>samples = 1<br/>value = [1, 0, 0, 0]<br/>class = NA_Sales>, fillcolor="#e58139ff"] ;
617 -> 621 ;
622 [label=<gini = 0.0<br/>samples = 1<br/>value = [1, 0, 0, 0]<br/>class = NA_Sales>, fillcolor="#e58139ff"] ;
612 -> 622 ;
623 [label=<gini = 0.0<br/>samples = 2<br/>value = [2, 0, 0, 0]<br/>class = NA_Sales>, fillcolor="#e58139ff"] ;
611 -> 623 ;
624 [label=<Rating_E10+ &le; 0.5<br/>gini = 0.408<br/>samples = 14<br/>value = [4, 0, 10, 0]<br/>class = JP_Sales>, fillcolor="#399de599"] ;
58 -> 624 ;
625 [label=<Rating_M &le; 0.5<br/>gini = 0.18<br/>samples = 10<br/>value = [1, 0, 9, 0]<br/>class = JP_Sales>, fillcolor="#399de5e3"] ;
624 -> 625 ;
626 [label=<gini = 0.0<br/>samples = 9<br/>value = [0, 0, 9, 0]<br/>class = JP_Sales>, fillcolor="#399de5ff"] ;
625 -> 626 ;
627 [label=<gini = 0.0<br/>samples = 1<br/>value = [1, 0, 0, 0]<br/>class = NA_Sales>, fillcolor="#e58139ff"] ;
625 -> 627 ;
628 [label=<Platform_Wii &le; 0.5<br/>gini = 0.375<br/>samples = 4<br/>value = [3, 0, 1, 0]<br/>class = NA_Sales>, fillcolor="#e58139aa"] ;
624 -> 628 ;
629 [label=<gini = 0.0<br/>samples = 3<br/>value = [3, 0, 0, 0]<br/>class = NA_Sales>, fillcolor="#e58139ff"] ;
628 -> 629 ;
630 [label=<gini = 0.0<br/>samples = 1<br/>value = [0, 0, 1, 0]<br/>class = JP_Sales>, fillcolor="#399de5ff"] ;
628 -> 630 ;
631 [label=<Genre_Racing &le; 0.5<br/>gini = 0.377<br/>samples = 35<br/>value = [3, 5, 27, 0]<br/>class = JP_Sales>, fillcolor="#399de5bb"] ;
57 -> 631 ;
632 [label=<Rating_T &le; 0.5<br/>gini = 0.264<br/>samples = 32<br/>value = [0, 5, 27, 0]<br/>class = JP_Sales>, fillcolor="#399de5d0"] ;
631 -> 632 ;
633 [label=<Platform_PS &le; 0.5<br/>gini = 0.1<br/>samples = 19<br/>value = [0, 1, 18, 0]<br/>class = JP_Sales>, fillcolor="#399de5f1"] ;
632 -> 633 ;
634 [label=<gini = 0.0<br/>samples = 16<br/>value = [0, 0, 16, 0]<br/>class = JP_Sales>, fillcolor="#399de5ff"] ;
633 -> 634 ;
635 [label=<Genre_Platform &le; 0.5<br/>gini = 0.444<br/>samples = 3<br/>value = [0, 1, 2, 0]<br/>class = JP_Sales>, fillcolor="#399de57f"] ;
633 -> 635 ;
636 [label=<gini = 0.5<br/>samples = 2<br/>value = [0, 1, 1, 0]<br/>class = EU_Sales>, fillcolor="#47e53900"] ;
635 -> 636 ;
637 [label=<gini = 0.0<br/>samples = 1<br/>value = [0, 0, 1, 0]<br/>class = JP_Sales>, fillcolor="#399de5ff"] ;
635 -> 637 ;
638 [label=<Genre_Shooter &le; 0.5<br/>gini = 0.426<br/>samples = 13<br/>value = [0, 4, 9, 0]<br/>class = JP_Sales>, fillcolor="#399de58e"] ;
632 -> 638 ;
639 [label=<Platform_Wii &le; 0.5<br/>gini = 0.463<br/>samples = 11<br/>value = [0, 4, 7, 0]<br/>class = JP_Sales>, fillcolor="#399de56d"] ;
638 -> 639 ;
640 [label=<Platform_DS &le; 0.5<br/>gini = 0.5<br/>samples = 6<br/>value = [0, 3, 3, 0]<br/>class = EU_Sales>, fillcolor="#47e53900"] ;
639 -> 640 ;
641 [label=<gini = 0.5<br/>samples = 4<br/>value = [0, 2, 2, 0]<br/>class = EU_Sales>, fillcolor="#47e53900"] ;
640 -> 641 ;
642 [label=<gini = 0.5<br/>samples = 2<br/>value = [0, 1, 1, 0]<br/>class = EU_Sales>, fillcolor="#47e53900"] ;
640 -> 642 ;
643 [label=<Genre_Adventure &le; 0.5<br/>gini = 0.32<br/>samples = 5<br/>value = [0, 1, 4, 0]<br/>class = JP_Sales>, fillcolor="#399de5bf"] ;
639 -> 643 ;
644 [label=<Genre_Fighting &le; 0.5<br/>gini = 0.375<br/>samples = 4<br/>value = [0, 1, 3, 0]<br/>class = JP_Sales>, fillcolor="#399de5aa"] ;
643 -> 644 ;
645 [label=<gini = 0.444<br/>samples = 3<br/>value = [0, 1, 2, 0]<br/>class = JP_Sales>, fillcolor="#399de57f"] ;
644 -> 645 ;
646 [label=<gini = 0.0<br/>samples = 1<br/>value = [0, 0, 1, 0]<br/>class = JP_Sales>, fillcolor="#399de5ff"] ;
644 -> 646 ;
647 [label=<gini = 0.0<br/>samples = 1<br/>value = [0, 0, 1, 0]<br/>class = JP_Sales>, fillcolor="#399de5ff"] ;
643 -> 647 ;
648 [label=<gini = 0.0<br/>samples = 2<br/>value = [0, 0, 2, 0]<br/>class = JP_Sales>, fillcolor="#399de5ff"] ;
638 -> 648 ;
649 [label=<gini = 0.0<br/>samples = 3<br/>value = [3, 0, 0, 0]<br/>class = NA_Sales>, fillcolor="#e58139ff"] ;
631 -> 649 ;
650 [label=<Rating_E &le; 0.5<br/>gini = 0.469<br/>samples = 8<br/>value = [3, 0, 5, 0]<br/>class = JP_Sales>, fillcolor="#399de566"] ;
56 -> 650 ;
651 [label=<Rating_T &le; 0.5<br/>gini = 0.48<br/>samples = 5<br/>value = [3, 0, 2, 0]<br/>class = NA_Sales>, fillcolor="#e5813955"] ;
650 -> 651 ;
652 [label=<Platform_X360 &le; 0.5<br/>gini = 0.5<br/>samples = 4<br/>value = [2, 0, 2, 0]<br/>class = NA_Sales>, fillcolor="#e5813900"] ;
651 -> 652 ;
653 [label=<gini = 0.5<br/>samples = 2<br/>value = [1, 0, 1, 0]<br/>class = NA_Sales>, fillcolor="#e5813900"] ;
652 -> 653 ;
654 [label=<gini = 0.5<br/>samples = 2<br/>value = [1, 0, 1, 0]<br/>class = NA_Sales>, fillcolor="#e5813900"] ;
652 -> 654 ;
655 [label=<gini = 0.0<br/>samples = 1<br/>value = [1, 0, 0, 0]<br/>class = NA_Sales>, fillcolor="#e58139ff"] ;
651 -> 655 ;
656 [label=<gini = 0.0<br/>samples = 3<br/>value = [0, 0, 3, 0]<br/>class = JP_Sales>, fillcolor="#399de5ff"] ;
650 -> 656 ;
657 [label=<Genre_Puzzle &le; 0.5<br/>gini = 0.5<br/>samples = 4<br/>value = [2, 0, 2, 0]<br/>class = NA_Sales>, fillcolor="#e5813900"] ;
55 -> 657 ;
658 [label=<gini = 0.0<br/>samples = 2<br/>value = [2, 0, 0, 0]<br/>class = NA_Sales>, fillcolor="#e58139ff"] ;
657 -> 658 ;
659 [label=<gini = 0.0<br/>samples = 2<br/>value = [0, 0, 2, 0]<br/>class = JP_Sales>, fillcolor="#399de5ff"] ;
657 -> 659 ;
660 [label=<Platform_DS &le; 0.5<br/>gini = 0.5<br/>samples = 4<br/>value = [2, 0, 2, 0]<br/>class = NA_Sales>, fillcolor="#e5813900"] ;
54 -> 660 ;
661 [label=<gini = 0.0<br/>samples = 2<br/>value = [0, 0, 2, 0]<br/>class = JP_Sales>, fillcolor="#399de5ff"] ;
660 -> 661 ;
662 [label=<gini = 0.0<br/>samples = 2<br/>value = [2, 0, 0, 0]<br/>class = NA_Sales>, fillcolor="#e58139ff"] ;
660 -> 662 ;
663 [label=<gini = 0.0<br/>samples = 1<br/>value = [1, 0, 0, 0]<br/>class = NA_Sales>, fillcolor="#e58139ff"] ;
53 -> 663 ;
664 [label=<gini = 0.0<br/>samples = 1<br/>value = [1, 0, 0, 0]<br/>class = NA_Sales>, fillcolor="#e58139ff"] ;
52 -> 664 ;
665 [label=<gini = 0.0<br/>samples = 1<br/>value = [1, 0, 0, 0]<br/>class = NA_Sales>, fillcolor="#e58139ff"] ;
51 -> 665 ;
666 [label=<gini = 0.0<br/>samples = 1<br/>value = [1, 0, 0, 0]<br/>class = NA_Sales>, fillcolor="#e58139ff"] ;
50 -> 666 ;
667 [label=<Rating_E10+ &le; 0.5<br/>gini = 0.463<br/>samples = 11<br/>value = [4, 0, 7, 0]<br/>class = JP_Sales>, fillcolor="#399de56d"] ;
49 -> 667 ;
668 [label=<Platform_Wii &le; 0.5<br/>gini = 0.42<br/>samples = 10<br/>value = [3, 0, 7, 0]<br/>class = JP_Sales>, fillcolor="#399de592"] ;
667 -> 668 ;
669 [label=<Genre_Misc &le; 0.5<br/>gini = 0.469<br/>samples = 8<br/>value = [3, 0, 5, 0]<br/>class = JP_Sales>, fillcolor="#399de566"] ;
668 -> 669 ;
670 [label=<Genre_Simulation &le; 0.5<br/>gini = 0.49<br/>samples = 7<br/>value = [3, 0, 4, 0]<br/>class = JP_Sales>, fillcolor="#399de540"] ;
669 -> 670 ;
671 [label=<Genre_Puzzle &le; 0.5<br/>gini = 0.5<br/>samples = 6<br/>value = [3, 0, 3, 0]<br/>class = NA_Sales>, fillcolor="#e5813900"] ;
670 -> 671 ;
672 [label=<gini = 0.0<br/>samples = 1<br/>value = [1, 0, 0, 0]<br/>class = NA_Sales>, fillcolor="#e58139ff"] ;
671 -> 672 ;
673 [label=<gini = 0.48<br/>samples = 5<br/>value = [2, 0, 3, 0]<br/>class = JP_Sales>, fillcolor="#399de555"] ;
671 -> 673 ;
674 [label=<gini = 0.0<br/>samples = 1<br/>value = [0, 0, 1, 0]<br/>class = JP_Sales>, fillcolor="#399de5ff"] ;
670 -> 674 ;
675 [label=<gini = 0.0<br/>samples = 1<br/>value = [0, 0, 1, 0]<br/>class = JP_Sales>, fillcolor="#399de5ff"] ;
669 -> 675 ;
676 [label=<gini = 0.0<br/>samples = 2<br/>value = [0, 0, 2, 0]<br/>class = JP_Sales>, fillcolor="#399de5ff"] ;
668 -> 676 ;
677 [label=<gini = 0.0<br/>samples = 1<br/>value = [1, 0, 0, 0]<br/>class = NA_Sales>, fillcolor="#e58139ff"] ;
667 -> 677 ;
678 [label=<gini = 0.0<br/>samples = 1<br/>value = [1, 0, 0, 0]<br/>class = NA_Sales>, fillcolor="#e58139ff"] ;
48 -> 678 ;
679 [label=<gini = 0.0<br/>samples = 1<br/>value = [0, 1, 0, 0]<br/>class = EU_Sales>, fillcolor="#47e539ff"] ;
47 -> 679 ;
680 [label=<gini = 0.0<br/>samples = 1<br/>value = [0, 1, 0, 0]<br/>class = EU_Sales>, fillcolor="#47e539ff"] ;
46 -> 680 ;
681 [label=<Genre_Simulation &le; 0.5<br/>gini = 0.31<br/>samples = 99<br/>value = [19, 0, 80, 0]<br/>class = JP_Sales>, fillcolor="#399de5c2"] ;
45 -> 681 ;
682 [label=<Publisher_505 Games &le; 0.5<br/>gini = 0.278<br/>samples = 96<br/>value = [16, 0, 80, 0]<br/>class = JP_Sales>, fillcolor="#399de5cc"] ;
681 -> 682 ;
683 [label=<Publisher_Ubisoft &le; 0.5<br/>gini = 0.256<br/>samples = 93<br/>value = [14, 0, 79, 0]<br/>class = JP_Sales>, fillcolor="#399de5d2"] ;
682 -> 683 ;
684 [label=<Publisher_Sega &le; 0.5<br/>gini = 0.178<br/>samples = 71<br/>value = [7, 0, 64, 0]<br/>class = JP_Sales>, fillcolor="#399de5e3"] ;
683 -> 684 ;
685 [label=<Publisher_Milkstone Studios &le; 0.5<br/>gini = 0.157<br/>samples = 70<br/>value = [6, 0, 64, 0]<br/>class = JP_Sales>, fillcolor="#399de5e7"] ;
684 -> 685 ;
686 [label=<Publisher_Milestone S.r.l &le; 0.5<br/>gini = 0.134<br/>samples = 69<br/>value = [5, 0, 64, 0]<br/>class = JP_Sales>, fillcolor="#399de5eb"] ;
685 -> 686 ;
687 [label=<Publisher_Deep Silver &le; 0.5<br/>gini = 0.111<br/>samples = 68<br/>value = [4, 0, 64, 0]<br/>class = JP_Sales>, fillcolor="#399de5ef"] ;
686 -> 687 ;
688 [label=<Publisher_Konami Digital Entertainment &le; 0.5<br/>gini = 0.061<br/>samples = 64<br/>value = [2, 0, 62, 0]<br/>class = JP_Sales>, fillcolor="#399de5f7"] ;
687 -> 688 ;
689 [label=<Genre_Racing &le; 0.5<br/>gini = 0.032<br/>samples = 61<br/>value = [1, 0, 60, 0]<br/>class = JP_Sales>, fillcolor="#399de5fb"] ;
688 -> 689 ;
690 [label=<gini = 0.0<br/>samples = 56<br/>value = [0, 0, 56, 0]<br/>class = JP_Sales>, fillcolor="#399de5ff"] ;
689 -> 690 ;
691 [label=<Publisher_Microsoft Game Studios &le; 0.5<br/>gini = 0.32<br/>samples = 5<br/>value = [1, 0, 4, 0]<br/>class = JP_Sales>, fillcolor="#399de5bf"] ;
689 -> 691 ;
692 [label=<gini = 0.0<br/>samples = 3<br/>value = [0, 0, 3, 0]<br/>class = JP_Sales>, fillcolor="#399de5ff"] ;
691 -> 692 ;
693 [label=<gini = 0.5<br/>samples = 2<br/>value = [1, 0, 1, 0]<br/>class = NA_Sales>, fillcolor="#e5813900"] ;
691 -> 693 ;
694 [label=<Genre_Sports &le; 0.5<br/>gini = 0.444<br/>samples = 3<br/>value = [1, 0, 2, 0]<br/>class = JP_Sales>, fillcolor="#399de57f"] ;
688 -> 694 ;
695 [label=<gini = 0.0<br/>samples = 2<br/>value = [0, 0, 2, 0]<br/>class = JP_Sales>, fillcolor="#399de5ff"] ;
694 -> 695 ;
696 [label=<gini = 0.0<br/>samples = 1<br/>value = [1, 0, 0, 0]<br/>class = NA_Sales>, fillcolor="#e58139ff"] ;
694 -> 696 ;
697 [label=<Rating_M &le; 0.5<br/>gini = 0.5<br/>samples = 4<br/>value = [2, 0, 2, 0]<br/>class = NA_Sales>, fillcolor="#e5813900"] ;
687 -> 697 ;
698 [label=<gini = 0.0<br/>samples = 1<br/>value = [0, 0, 1, 0]<br/>class = JP_Sales>, fillcolor="#399de5ff"] ;
697 -> 698 ;
699 [label=<Genre_Shooter &le; 0.5<br/>gini = 0.444<br/>samples = 3<br/>value = [2, 0, 1, 0]<br/>class = NA_Sales>, fillcolor="#e581397f"] ;
697 -> 699 ;
700 [label=<gini = 0.5<br/>samples = 2<br/>value = [1, 0, 1, 0]<br/>class = NA_Sales>, fillcolor="#e5813900"] ;
699 -> 700 ;
701 [label=<gini = 0.0<br/>samples = 1<br/>value = [1, 0, 0, 0]<br/>class = NA_Sales>, fillcolor="#e58139ff"] ;
699 -> 701 ;
702 [label=<gini = 0.0<br/>samples = 1<br/>value = [1, 0, 0, 0]<br/>class = NA_Sales>, fillcolor="#e58139ff"] ;
686 -> 702 ;
703 [label=<gini = 0.0<br/>samples = 1<br/>value = [1, 0, 0, 0]<br/>class = NA_Sales>, fillcolor="#e58139ff"] ;
685 -> 703 ;
